
#include <eml_net.h>
static const float weather_forecast_layer_0_biases[30] = { 0.000000f, 0.000000f, -0.021449f, 0.000000f, -0.051729f, 0.000000f, 0.000000f, 0.000000f, 0.002124f, 0.000000f, 0.000000f, -0.001662f, -0.074514f, 0.002453f, -0.028769f, 0.000000f, -0.088297f, -0.023076f, 0.013728f, -0.047268f, -0.016877f, 0.000000f, 0.000000f, 0.000000f, 0.015356f, -0.038654f, -0.000157f, 0.000000f, -0.016508f, 0.000000f };
static const float weather_forecast_layer_0_weights[90] = { -0.140259f, -0.337106f, -0.330023f, -0.034883f, -0.200874f, 0.254806f, 0.417288f, -0.044612f, -0.505445f, 0.184565f, -0.158069f, 0.399567f, 0.278101f, -0.547316f, 0.431330f, 0.385422f, 0.312213f, -0.399785f, 0.666953f, 0.126668f, 0.703775f, -0.202479f, 0.300485f, -0.324196f, -0.238604f, 0.752755f, -0.646625f, -0.193449f, 0.437413f, 0.022953f, -0.179705f, 0.327108f, 0.380293f, -0.334320f, 0.107482f, -0.145928f, 0.106762f, -0.422893f, 0.247776f, 0.021032f, -0.244821f, -0.263336f, 0.352424f, 0.175978f, -0.592559f, -0.334791f, -0.176019f, 0.382822f, -0.548719f, -0.100297f, -0.456076f, 0.362780f, -0.189892f, 0.335409f, 0.563968f, -0.300261f, 0.005377f, 0.237143f, -0.253564f, -0.201709f, -0.051608f, -0.409639f, 0.125708f, -0.305234f, 0.293188f, -0.192625f, -0.420891f, -0.169301f, 0.017783f, -0.234313f, -0.125788f, -0.000866f, 0.090842f, 0.068153f, 0.322195f, -0.401975f, 0.235418f, 0.155530f, 0.043727f, 0.211475f, 0.195147f, -0.417410f, -0.154044f, -0.049842f, -0.000866f, 0.037277f, 0.134640f, -0.250445f, 0.363107f, -0.328973f };
static const float weather_forecast_layer_1_biases[30] = { 0.000000f, 0.000000f, 0.000000f, 0.000000f, 0.004802f, -0.029096f, -0.021844f, -0.008675f, 0.000000f, -0.029360f, -0.031053f, 0.000000f, -0.004147f, 0.000000f, -0.006363f, -0.008648f, -0.035367f, 0.000000f, 0.000000f, 0.000000f, -0.006923f, 0.000000f, 0.000000f, 0.000000f, 0.000000f, 0.000000f, 0.000000f, 0.000000f, -0.013928f, 0.000448f };
static const float weather_forecast_layer_1_weights[900] = { 0.001606f, 0.173333f, 0.096085f, 0.131842f, 0.231134f, -0.301733f, 0.112131f, 0.114925f, -0.002814f, 0.290325f, 0.052458f, 0.114116f, 0.120959f, 0.265684f, 0.029408f, 0.016237f, 0.030958f, -0.198007f, -0.021026f, -0.307266f, -0.113467f, 0.255240f, 0.094055f, -0.048223f, -0.087053f, 0.048248f, 0.123664f, 0.065235f, 0.310320f, -0.289837f, -0.075092f, 0.242669f, -0.128238f, -0.292654f, 0.113878f, -0.107087f, 0.026093f, -0.293277f, 0.225623f, -0.273792f, 0.135880f, -0.058775f, -0.023451f, -0.214162f, -0.038606f, 0.167252f, 0.237512f, 0.239904f, -0.115627f, -0.019466f, -0.081524f, 0.207586f, 0.242054f, -0.120385f, 0.280172f, -0.092680f, 0.301408f, -0.314981f, 0.065334f, 0.049989f, 0.158368f, -0.213099f, -0.085905f, -0.303012f, -0.082294f, 0.008514f, 0.148079f, -0.034530f, -0.260335f, -0.043260f, -0.072745f, 0.231866f, 0.282614f, 0.263908f, 0.103743f, -0.200300f, 0.151416f, 0.035714f, -0.162418f, 0.206511f, 0.162688f, -0.105612f, 0.207848f, 0.126279f, 0.301834f, -0.090206f, -0.025760f, 0.013744f, 0.257636f, 0.268496f, -0.123927f, 0.183257f, -0.160879f, -0.013654f, -0.134800f, -0.212301f, -0.280902f, 0.045506f, -0.050301f, -0.110226f, -0.003299f, -0.220401f, 0.303046f, -0.119145f, -0.284095f, -0.107312f, -0.036158f, 0.312234f, 0.276323f, 0.147741f, -0.309513f, -0.299840f, -0.131198f, -0.230978f, 0.173685f, 0.240434f, -0.060298f, -0.297425f, -0.179271f, 0.089743f, -0.043440f, 0.165647f, -0.130343f, 0.183980f, 0.294122f, -0.055111f, -0.319287f, 0.211080f, -0.080002f, 0.054073f, 0.282082f, 0.059836f, 0.266671f, -0.155114f, -0.304044f, 0.074754f, -0.237700f, -0.057363f, -0.057222f, -0.049476f, 0.092751f, -0.183193f, -0.122023f, 0.033865f, -0.071907f, -0.306739f, -0.112333f, 0.185514f, 0.130333f, 0.227127f, 0.038587f, 0.208046f, -0.073769f, -0.267996f, 0.244311f, 0.160325f, 0.273173f, -0.275956f, -0.211588f, -0.211166f, -0.250692f, -0.171959f, -0.239819f, 0.132461f, -0.215294f, -0.019362f, 0.016144f, 0.038372f, 0.144109f, -0.055645f, -0.298386f, -0.274295f, 0.167958f, 0.085086f, -0.304302f, -0.284686f, 0.029402f, -0.277378f, 0.129733f, 0.195940f, 0.221433f, 0.110608f, 0.079958f, 0.297043f, 0.249358f, 0.189231f, 0.183524f, -0.069288f, -0.221912f, 0.121400f, -0.228971f, -0.237741f, 0.249929f, -0.180918f, -0.100071f, -0.003397f, -0.024172f, 0.303015f, -0.127419f, -0.032052f, -0.024002f, 0.148336f, 0.241311f, -0.140438f, -0.212613f, -0.054729f, -0.006821f, -0.081776f, -0.008866f, -0.059846f, 0.163025f, -0.287309f, -0.097705f, -0.148203f, -0.077532f, 0.156365f, -0.021263f, -0.289133f, -0.303432f, 0.022895f, 0.103565f, 0.246862f, -0.181686f, -0.227126f, 0.294451f, -0.048191f, -0.058122f, 0.021509f, -0.271610f, 0.207047f, 0.191868f, 0.083110f, -0.126858f, 0.011287f, -0.173885f, -0.152575f, -0.283324f, -0.172775f, -0.054160f, 0.095978f, -0.092442f, -0.288431f, 0.191217f, 0.004943f, 0.155405f, -0.056994f, -0.182361f, -0.283063f, 0.281553f, 0.001351f, -0.043774f, -0.197026f, -0.142263f, -0.030392f, 0.123493f, 0.087667f, -0.472853f, 0.315704f, -0.198367f, 0.133911f, -0.118549f, -0.012644f, 0.170690f, -0.041176f, 0.082003f, 0.080054f, 0.102731f, 0.027928f, 0.313803f, 0.161765f, -0.182773f, 0.151191f, -0.104297f, 0.038828f, -0.099536f, -0.087008f, -0.158171f, 0.061386f, -0.024363f, 0.148539f, 0.085795f, 0.098967f, -0.168292f, 0.178836f, 0.246180f, 0.031559f, -0.275876f, -0.183293f, -0.203766f, 0.156692f, 0.243399f, -0.302839f, -0.156597f, 0.072607f, 0.268395f, -0.097061f, -0.030843f, -0.104262f, 0.161859f, -0.067045f, 0.172540f, 0.136007f, 0.048773f, 0.098458f, 0.152982f, 0.027142f, 0.203905f, 0.073407f, 0.004585f, -0.092134f, 0.251954f, -0.247478f, -0.235294f, 0.292549f, -0.050688f, 0.128390f, 0.081474f, 0.259509f, 0.092385f, 0.200214f, 0.125705f, 0.310546f, 0.107175f, 0.019843f, 0.177806f, 0.274520f, 0.095633f, 0.139152f, 0.292646f, -0.146808f, 0.285816f, 0.297602f, -0.165482f, -0.201943f, -0.273587f, -0.000166f, -0.222616f, -0.068455f, 0.064773f, -0.144999f, -0.005022f, 0.297432f, -0.269167f, -0.266116f, 0.080193f, -0.058743f, -0.153975f, -0.105908f, 0.294250f, -0.282072f, -0.249895f, 0.093928f, 0.205423f, -0.148973f, 0.256217f, -0.075337f, 0.048387f, 0.284419f, 0.000433f, 0.053993f, 0.222691f, 0.153066f, -0.038243f, -0.205637f, 0.162598f, 0.178135f, 0.059804f, -0.217745f, -0.308250f, -0.013846f, 0.106372f, 0.101926f, 0.000448f, -0.117852f, -0.226041f, -0.213407f, 0.056089f, -0.038240f, 0.301882f, 0.062838f, -0.023583f, -0.265551f, -0.054815f, 0.244792f, 0.082712f, -0.188968f, 0.157503f, 0.045628f, -0.169150f, -0.282867f, -0.212053f, -0.207942f, -0.209603f, 0.209770f, -0.030566f, -0.318361f, 0.047726f, -0.275381f, -0.210090f, 0.031693f, 0.151118f, -0.229738f, -0.108335f, 0.104334f, -0.058427f, -0.241830f, -0.343206f, -0.312644f, -0.210973f, 0.034460f, -0.253367f, 0.151677f, -0.126243f, 0.276699f, 0.171954f, 0.227697f, -0.080700f, -0.015682f, -0.058413f, 0.239937f, -0.300530f, 0.093655f, -0.016395f, -0.310459f, 0.082201f, 0.180804f, 0.261930f, -0.091721f, -0.090652f, 0.243051f, 0.133952f, 0.210848f, -0.296614f, 0.053060f, -0.096836f, 0.170341f, 0.133621f, 0.173978f, -0.116226f, -0.056149f, -0.290448f, -0.176589f, 0.176268f, -0.048972f, -0.039723f, -0.231672f, -0.008358f, -0.280968f, -0.052038f, -0.167320f, 0.157997f, 0.267206f, 0.260745f, 0.188961f, -0.191345f, 0.068855f, 0.239727f, 0.015881f, 0.275100f, 0.017897f, -0.175844f, 0.194243f, 0.241833f, 0.193523f, -0.198155f, -0.044198f, 0.129956f, -0.102627f, 0.134269f, 0.157226f, 0.021665f, 0.021709f, -0.011581f, 0.254243f, -0.081604f, -0.010815f, 0.235613f, 0.055854f, -0.101246f, -0.156116f, 0.132732f, -0.241390f, -0.305574f, -0.304020f, 0.197394f, 0.057871f, -0.100453f, 0.048014f, 0.074620f, 0.180349f, 0.081396f, -0.243154f, -0.250996f, 0.153203f, 0.290095f, 0.118972f, 0.203123f, -0.193161f, 0.193716f, -0.141024f, -0.009362f, -0.067219f, -0.310917f, -0.206117f, -0.243978f, -0.269894f, -0.007156f, -0.264209f, 0.096179f, 0.123625f, -0.269880f, -0.259048f, 0.009592f, -0.246638f, -0.220502f, -0.008134f, 0.076090f, -0.091851f, -0.132910f, 0.180121f, -0.228652f, -0.207263f, 0.246808f, 0.174772f, 0.069706f, -0.145412f, -0.114623f, -0.030420f, -0.238868f, 0.216858f, -0.061185f, -0.201068f, 0.282481f, 0.073581f, -0.005944f, -0.118522f, 0.023745f, -0.208325f, 0.209164f, 0.275095f, -0.241495f, -0.101665f, -0.045110f, 0.090524f, -0.589516f, 0.123637f, 0.197692f, 0.699471f, 0.156739f, 0.757399f, 0.124256f, -0.003801f, -0.314304f, -0.204975f, -0.166528f, 0.385032f, 0.511118f, 0.256420f, 0.115728f, 0.078912f, -0.163452f, -0.285480f, 0.201671f, -0.033874f, 0.015439f, -0.214997f, -0.002868f, -0.173341f, -0.280677f, -0.547217f, -0.075687f, -0.306193f, -0.153095f, -0.164868f, 0.276979f, -0.080652f, -0.275470f, 0.191600f, 0.282679f, -0.015055f, -0.130224f, -0.287700f, -0.056224f, -0.069984f, -0.228521f, -0.299829f, 0.025790f, 0.104610f, 0.077755f, -0.248320f, -0.124712f, 0.060460f, -0.292083f, -0.198950f, 0.182450f, 0.266984f, 0.040995f, 0.042766f, 0.252755f, -0.168536f, 0.098892f, -0.075919f, -0.281723f, 0.268953f, -0.082830f, -0.100037f, 0.082962f, 0.226453f, 0.194562f, 0.124126f, -0.032873f, -0.246683f, -0.214248f, -0.124689f, 0.229800f, 0.327039f, 0.257272f, -0.228957f, -0.190033f, 0.083481f, -0.024703f, 0.263251f, -0.315626f, -0.090224f, -0.201268f, -0.125201f, -0.271429f, 0.239593f, 0.026658f, 0.030845f, 0.290250f, -0.173551f, -0.063035f, 0.225582f, 0.021737f, 0.287308f, 0.023690f, -0.215823f, 0.303187f, -0.078293f, 0.229958f, 0.077793f, -0.275515f, 0.106941f, 0.028194f, -0.299441f, 0.123653f, 0.294703f, -0.031742f, -0.162216f, -0.173956f, 0.290285f, 0.017429f, -0.256761f, 0.198180f, -0.288698f, 0.186736f, 0.062969f, 0.169395f, -0.143754f, 0.066963f, -0.114184f, 0.205923f, 0.306407f, 0.130642f, 0.248165f, -0.060305f, 0.037030f, 0.183570f, 0.312930f, 0.150647f, 0.163259f, -0.210355f, -0.250543f, -0.127671f, 0.173809f, -0.308795f, -0.044464f, -0.051254f, 0.298893f, -0.131086f, -0.277662f, -0.185041f, 0.082048f, -0.149277f, -0.120250f, -0.164989f, 0.205401f, 0.148698f, 0.019856f, -0.077251f, 0.183729f, -0.119508f, 0.095931f, 0.178383f, 0.275986f, -0.149829f, 0.303012f, 0.046365f, 0.064736f, 0.085014f, 0.134825f, 0.256407f, -0.283653f, 0.248778f, -0.063340f, 0.065048f, 0.079894f, 0.240129f, -0.282785f, 0.254435f, 0.305890f, 0.277861f, -0.127990f, 0.247008f, 0.029680f, -0.133167f, 0.187592f, -0.117091f, -0.248945f, -0.147307f, -0.160172f, -0.125423f, -0.108273f, -0.067012f, -0.193913f, 0.232189f, -0.475206f, -0.032585f, -0.562399f, 0.163702f, 0.048194f, 0.187366f, 0.120077f, -0.284094f, -0.330704f, -0.246587f, 0.084262f, 0.218566f, 0.011520f, -0.258538f, 0.165415f, -0.202984f, 0.027795f, 0.069342f, -0.045888f, -0.266467f, 0.064492f, 0.279664f, 0.438952f, -0.143990f, 0.265565f, -0.021910f, -0.135373f, 0.009947f, 0.329987f, -0.247634f, -0.115280f, 0.195919f, 0.196350f, -0.211143f, 0.237764f, 0.092868f, -0.257505f, 0.295080f, 0.277260f, 0.324918f, -0.210987f, -0.115767f, 0.307789f, 0.130821f, 0.180340f, -0.161610f, -0.012140f, -0.302202f, -0.180477f, -0.068514f, -0.211975f, -0.068332f, 0.078952f, 0.193973f, 0.079731f, 0.191167f, 0.227766f, 0.016749f, 0.144187f, -0.285307f, -0.288384f, 0.077067f, -0.105298f, -0.198607f, 0.064998f, -0.255432f, -0.263702f, -0.214349f, -0.276193f, -0.057797f, -0.220002f, -0.159530f, -0.280225f, -0.110919f, 0.224423f, -0.207071f, -0.123501f, -0.276502f, 0.191342f, -0.268895f, 0.011923f, 0.283897f, 0.260651f, -0.234530f, 0.254018f, 0.259090f, 0.201111f, 0.058881f, -0.198882f, 0.115277f, 0.200053f, 0.141487f, -0.066692f, -0.294297f, -0.214881f, -0.120577f, 0.230282f, -0.240337f, 0.063003f, 0.139899f, 0.160693f, -0.266161f, -0.235083f, -0.084411f, 0.258836f, 0.025492f, -0.257955f, -0.170593f, -0.011079f, 0.277531f, -0.140154f, -0.105635f, -0.173136f, -0.112452f, 0.037505f, 0.095987f, 0.175687f, 0.037447f, -0.002682f, 0.094099f, 0.301484f, -0.080887f, 0.203134f, -0.014431f, 0.073909f, 0.031253f, -0.279231f, 0.131204f, 0.173680f, 0.051167f, -0.097509f, -0.050073f, -0.208947f, 0.277268f, -0.000015f, -0.115153f, -0.274741f, 0.082353f, -0.042828f, -0.201086f, -0.044901f, -0.240787f, -0.055323f, 0.050584f, -0.304375f, -0.046634f, 0.224233f, -0.038441f, -0.266767f, 0.116014f, -0.196002f, 0.048533f, -0.077890f, 0.282122f, 0.008488f, -0.150460f, -0.053234f, -0.285506f, 0.041000f, -0.075611f, -0.113818f, 0.282711f, 0.037981f, 0.235507f, 0.191900f, 0.146672f, 0.301975f, -0.087233f, 0.210353f, -0.202988f, 0.278181f, 0.313582f, -0.019314f };
static const float weather_forecast_layer_2_biases[30] = { -0.032214f, -0.050049f, 0.000000f, -0.003898f, 0.004893f, -0.053865f, -0.023371f, 0.000000f, -0.009869f, -0.024096f, -0.001550f, 0.000000f, -0.007350f, 0.000000f, 0.021253f, -0.008493f, 0.000000f, 0.000000f, 0.000000f, -0.037338f, -0.035407f, 0.000000f, 0.000000f, 0.000000f, 0.000000f, -0.015370f, -0.031011f, -0.027422f, -0.095319f, 0.000000f };
static const float weather_forecast_layer_2_weights[900] = { -0.261321f, -0.159627f, 0.044098f, -0.025201f, -0.289793f, 0.225202f, -0.199491f, 0.158810f, -0.056079f, -0.124590f, 0.045321f, 0.144801f, -0.140661f, -0.233395f, -0.145016f, 0.106191f, -0.010503f, 0.172219f, 0.195267f, 0.307877f, -0.222025f, 0.273182f, 0.302830f, -0.122612f, 0.245773f, 0.242706f, -0.169794f, 0.217203f, -0.094329f, 0.213761f, 0.196870f, -0.058284f, 0.280707f, 0.284267f, -0.185412f, 0.279854f, -0.238346f, -0.093024f, 0.064503f, -0.218962f, -0.072064f, 0.198477f, 0.061892f, 0.042434f, -0.156151f, -0.133916f, 0.227320f, 0.186843f, 0.178819f, -0.204733f, -0.117579f, 0.241407f, 0.310745f, 0.132831f, -0.015587f, -0.300612f, -0.293820f, 0.206363f, -0.288069f, 0.224554f, 0.184281f, 0.106716f, -0.067605f, 0.043188f, -0.001182f, -0.312538f, 0.185196f, -0.263332f, 0.262987f, -0.241032f, 0.119495f, -0.212524f, 0.096167f, 0.072236f, 0.092168f, -0.229455f, -0.107705f, 0.083324f, 0.194854f, -0.248120f, 0.069754f, -0.100342f, 0.109534f, -0.035119f, -0.073897f, 0.303723f, -0.072917f, -0.298577f, -0.162783f, -0.142465f, -0.219173f, 0.107922f, 0.173618f, -0.087488f, -0.218931f, -0.289474f, -0.141086f, -0.150348f, -0.063371f, -0.144311f, -0.009656f, 0.197482f, -0.019056f, -0.047146f, 0.248646f, -0.206855f, 0.182117f, -0.076115f, 0.282300f, -0.197033f, -0.039453f, 0.143960f, 0.235487f, -0.279348f, 0.239194f, -0.181103f, 0.125054f, 0.072370f, -0.056136f, -0.151887f, -0.080129f, -0.288668f, 0.060008f, 0.291410f, 0.002553f, -0.270157f, 0.213160f, -0.311984f, -0.230251f, -0.008690f, 0.192812f, 0.259046f, 0.012543f, -0.103497f, -0.035279f, -0.167745f, -0.027992f, -0.182252f, -0.103021f, -0.038768f, -0.310697f, 0.143661f, 0.132089f, -0.224794f, -0.307279f, -0.172851f, 0.037671f, 0.255257f, 0.005279f, -0.129998f, 0.087839f, 0.095891f, -0.281971f, 0.003811f, 0.276412f, -0.347448f, 0.061353f, -0.071313f, 0.285203f, -0.149560f, 0.267627f, -0.298444f, 0.291123f, 0.002294f, 0.268333f, 0.148287f, -0.062069f, 0.066092f, 0.225052f, 0.183802f, -0.339411f, -0.042891f, 0.024620f, 0.136695f, -0.164983f, 0.142058f, 0.188327f, -0.058822f, -0.017925f, 0.166720f, 0.050603f, -0.105186f, 0.171439f, -0.143023f, -0.037325f, 0.179867f, 0.194915f, -0.086463f, 0.057934f, 0.244378f, -0.211651f, 0.311900f, -0.149664f, -0.226195f, -0.118006f, 0.300921f, 0.146781f, -0.105785f, -0.296621f, -0.342463f, -0.267710f, -0.020737f, -0.164998f, -0.035111f, 0.104424f, 0.137319f, 0.055480f, 0.032154f, 0.304194f, 0.010833f, 0.186849f, 0.061676f, 0.160719f, -0.274260f, 0.259539f, 0.237723f, 0.234365f, 0.192186f, 0.300775f, -0.101334f, 0.108682f, -0.252179f, -0.272668f, -0.027808f, -0.189584f, 0.252103f, 0.114610f, -0.263959f, -0.090260f, -0.225044f, 0.003782f, -0.291522f, -0.268641f, 0.048709f, -0.137032f, 0.054540f, -0.074505f, 0.030712f, 0.114969f, 0.112235f, -0.175793f, -0.136813f, 0.170279f, -0.115031f, 0.009620f, -0.041448f, 0.173758f, 0.240330f, -0.305864f, 0.052334f, -0.079585f, -0.035188f, -0.214487f, -0.216735f, -0.136064f, 0.054213f, -0.054039f, 0.071126f, 0.070109f, -0.155169f, 0.198888f, 0.102300f, -0.008795f, -0.064335f, 0.184573f, -0.016848f, 0.260917f, 0.138367f, -0.202703f, 0.311633f, -0.099860f, 0.251724f, -0.028728f, -0.271137f, -0.010570f, 0.072689f, -0.043299f, -0.258494f, 0.196334f, -0.167908f, -0.315500f, -0.175889f, -0.028056f, -0.230232f, -0.170018f, -0.094528f, -0.215509f, 0.021996f, -0.072464f, 0.121010f, 0.148650f, -0.230101f, -0.314335f, -0.307481f, -0.037835f, -0.055761f, 0.206789f, -0.292567f, 0.140098f, 0.130371f, -0.263097f, 0.233379f, 0.196248f, -0.231926f, 0.161796f, -0.276755f, -0.289229f, 0.094273f, 0.178956f, 0.185703f, -0.115872f, -0.002406f, 0.232787f, -0.069107f, 0.298552f, -0.143089f, -0.046783f, -0.221786f, 0.315892f, -0.033516f, -0.229459f, -0.135671f, -0.077977f, 0.309266f, 0.106993f, -0.141915f, 0.008079f, 0.190267f, -0.340613f, -0.254104f, -0.309661f, -0.178813f, 0.068083f, 0.253039f, 0.198124f, 0.176095f, -0.044299f, 0.202416f, 0.097419f, -0.269913f, 0.111342f, -0.140576f, -0.114805f, -0.043241f, -0.270157f, -0.133054f, -0.207420f, 0.118983f, 0.312247f, -0.247530f, 0.053147f, -0.031469f, 0.078215f, -0.080403f, 0.244912f, -0.203477f, -0.158761f, 0.164565f, -0.138163f, -0.237690f, 0.009806f, -0.135458f, 0.164471f, 0.017835f, 0.252647f, -0.120609f, 0.248035f, 0.221512f, -0.120986f, -0.208773f, -0.136798f, 0.224036f, 0.182794f, 0.045570f, -0.259998f, 0.040299f, -0.145055f, -0.000515f, -0.276162f, -0.171969f, 0.107724f, -0.044973f, 0.023563f, -0.139159f, 0.193251f, 0.180247f, -0.129771f, 0.244673f, -0.072219f, 0.008662f, -0.059920f, -0.266277f, -0.059444f, -0.270586f, -0.095481f, -0.103332f, -0.239994f, -0.111381f, -0.052936f, -0.093483f, -0.235888f, -0.208503f, 0.024359f, 0.086325f, 0.285961f, 0.223529f, -0.207917f, 0.260039f, -0.217636f, -0.209013f, 0.173055f, -0.194863f, -0.044564f, -0.003929f, 0.058804f, -0.231191f, -0.128417f, 0.048986f, 0.022059f, -0.150501f, 0.137496f, 0.110452f, -0.117520f, -0.060698f, 0.091473f, 0.095954f, -0.003015f, -0.184033f, 0.239347f, -0.018210f, 0.243533f, -0.030268f, 0.043562f, 0.180621f, 0.149051f, -0.117313f, -0.186872f, 0.126300f, 0.132291f, 0.052678f, 0.164731f, 0.157288f, 0.066068f, -0.048156f, 0.011305f, -0.295052f, 0.266072f, -0.064882f, -0.212103f, -0.234845f, 0.022264f, -0.131798f, -0.266088f, 0.071779f, 0.185127f, 0.195954f, 0.036769f, -0.187229f, 0.390417f, 0.057571f, -0.118903f, -0.172959f, -0.408179f, 0.126961f, -0.260506f, -0.069534f, -0.201546f, -0.259971f, 0.309885f, 0.247779f, -0.161186f, 0.017826f, -0.004621f, 0.272166f, -0.196084f, 0.013784f, 0.216955f, -0.243062f, -0.259636f, 0.133888f, 0.222019f, 0.263964f, -0.061027f, 0.156385f, 0.100489f, -0.352246f, -0.249988f, 0.159018f, 0.245701f, -0.190129f, 0.301012f, 0.148250f, 0.007469f, 0.064311f, 0.107104f, -0.112548f, 0.016470f, -0.054323f, -0.314074f, -0.103369f, -0.178304f, -0.174627f, -0.180685f, -0.302523f, 0.056833f, 0.296754f, -0.127608f, 0.047804f, -0.001803f, -0.314141f, 0.251058f, -0.133286f, -0.237615f, 0.115781f, 0.002102f, 0.204170f, -0.077591f, -0.195330f, -0.068857f, -0.257257f, 0.134884f, 0.304782f, 0.157673f, 0.154436f, -0.072718f, 0.098204f, -0.281952f, 0.004785f, -0.251578f, 0.079886f, -0.023421f, 0.287216f, -0.089027f, 0.252451f, -0.119263f, -0.153131f, -0.130647f, 0.100808f, 0.052334f, -0.304756f, 0.113998f, -0.122468f, -0.166364f, -0.143243f, -0.177405f, -0.059009f, 0.225130f, 0.261688f, 0.086302f, -0.172238f, -0.288101f, 0.135716f, -0.207480f, 0.278498f, 0.011249f, -0.161433f, -0.198250f, -0.162112f, -0.055569f, 0.205948f, 0.290867f, -0.167379f, -0.281465f, -0.261262f, -0.309041f, 0.086884f, -0.163897f, -0.068620f, 0.024500f, 0.296975f, -0.077453f, -0.084182f, 0.224788f, 0.139935f, 0.131894f, -0.049958f, 0.082724f, -0.192086f, 0.205790f, -0.248000f, -0.234110f, 0.155244f, -0.227783f, -0.032069f, 0.093791f, 0.052875f, 0.230500f, 0.285509f, -0.288368f, 0.061241f, -0.127456f, -0.015843f, -0.031297f, -0.114392f, -0.046559f, -0.079498f, -0.281048f, -0.156891f, 0.116828f, -0.231729f, -0.316361f, 0.225230f, -0.235814f, -0.067140f, 0.027236f, 0.148813f, 0.170619f, 0.180243f, -0.144223f, -0.181779f, 0.290396f, 0.313644f, -0.219347f, -0.261497f, -0.288246f, -0.248986f, 0.013692f, 0.282440f, -0.109030f, 0.188311f, 0.298591f, -0.139939f, -0.157293f, -0.246059f, -0.160764f, 0.058367f, 0.248832f, 0.016824f, 0.224913f, -0.165202f, -0.175925f, 0.034707f, 0.053460f, 0.074628f, -0.199955f, 0.182419f, -0.204615f, -0.022172f, -0.034144f, -0.096008f, 0.013480f, 0.126469f, -0.204369f, -0.193287f, 0.028966f, -0.190025f, 0.313107f, -0.095930f, -0.129563f, 0.188678f, -0.062289f, 0.267273f, 0.050744f, -0.195635f, 0.279900f, 0.021986f, -0.068457f, 0.049236f, -0.022330f, 0.175907f, 0.022454f, -0.039250f, 0.067765f, -0.119010f, 0.005255f, -0.198090f, -0.243302f, 0.138173f, -0.060502f, -0.233114f, -0.164873f, 0.057900f, -0.124986f, 0.211681f, 0.064973f, 0.013382f, -0.229099f, -0.117299f, -0.259023f, -0.073885f, -0.262302f, -0.043648f, 0.059752f, 0.254780f, -0.289673f, 0.110895f, -0.000056f, 0.166845f, 0.012008f, -0.055855f, -0.088964f, 0.290352f, -0.189719f, 0.140589f, 0.065891f, 0.004163f, -0.101033f, -0.138823f, -0.301475f, 0.288574f, -0.028683f, 0.275589f, -0.066744f, -0.020788f, 0.160019f, 0.095188f, 0.297267f, 0.217075f, -0.228542f, 0.192006f, 0.131927f, -0.109146f, -0.263709f, -0.269617f, -0.190868f, 0.197468f, -0.079033f, 0.239684f, -0.283466f, -0.006121f, -0.021377f, -0.132924f, 0.153674f, -0.208098f, -0.142931f, 0.300442f, 0.187333f, 0.266687f, -0.296914f, -0.009177f, 0.290094f, -0.274060f, -0.096550f, 0.218364f, 0.165515f, -0.160032f, 0.065399f, -0.150327f, -0.206671f, -0.001631f, 0.290548f, -0.038894f, -0.259209f, -0.027944f, -0.177377f, 0.252154f, -0.065876f, -0.164646f, 0.217633f, 0.107868f, 0.288778f, 0.078819f, -0.222944f, 0.071433f, -0.304225f, 0.299701f, 0.269874f, -0.193992f, -0.118211f, -0.111222f, 0.027141f, -0.085901f, 0.086679f, 0.036423f, 0.006279f, 0.168054f, 0.052396f, -0.116426f, -0.245768f, -0.222307f, 0.256889f, 0.039666f, 0.004402f, -0.000572f, 0.121587f, 0.142915f, 0.291242f, -0.307967f, -0.250678f, -0.313307f, -0.157948f, -0.048259f, 0.221105f, -0.215931f, 0.275492f, -0.158268f, 0.240635f, 0.032375f, 0.157243f, -0.290040f, 0.112223f, -0.202235f, -0.101895f, 0.010841f, 0.307811f, 0.111356f, -0.125183f, 0.127760f, 0.174022f, 0.230544f, 0.196306f, 0.234544f, -0.257608f, 0.011806f, -0.313658f, 0.032108f, -0.106803f, -0.104622f, -0.196553f, -0.208448f, -0.142641f, 0.297387f, 0.013463f, 0.140939f, 0.033092f, -0.026927f, 0.122457f, -0.157805f, -0.285386f, 0.243656f, 0.295541f, -0.067203f, -0.308260f, 0.151007f, 0.226586f, 0.299244f, 0.035134f, 0.029546f, -0.238468f, -0.002348f, -0.051997f, 0.085943f, 0.128924f, -0.182962f, 0.022881f, 0.095490f, -0.188559f, -0.152426f, -0.100769f, -0.160107f, -0.095604f, 0.078372f, -0.299543f, -0.034964f, -0.144267f, 0.182647f, -0.282071f, -0.150674f, 0.110359f, -0.006481f, 0.015822f, -0.142030f, 0.106949f, 0.080506f, 0.184288f, -0.130561f, 0.075923f, 0.092205f, 0.061289f, -0.171453f, 0.042953f, -0.080928f, 0.292038f, -0.259615f, -0.208855f, -0.330223f, -0.230594f, 0.231226f, 0.178933f, -0.163470f, 0.033676f, -0.047858f, -0.064622f, 0.122282f, -0.123362f, -0.062959f, -0.339793f, 0.043841f, -0.350836f, 0.190221f, -0.196202f, -0.275879f, 0.318502f, -0.145299f, 0.289199f, 0.294629f, 0.092672f, -0.183441f, 0.046290f, 0.029397f, 0.192211f, 0.161126f, -0.176552f, 0.256275f, -0.302806f, 0.177960f, -0.011439f, -0.307802f, -0.123539f, 0.018489f };
static const float weather_forecast_layer_3_biases[30] = { -0.012336f, 0.000000f, -0.053750f, -0.090700f, -0.001272f, -0.082677f, -0.027883f, 0.000000f, 0.000000f, -0.038944f, -0.040807f, 0.044780f, -0.007337f, -0.044811f, 0.000000f, -0.014384f, 0.020996f, 0.000000f, -0.045637f, -0.002752f, 0.000000f, -0.056345f, 0.000000f, 0.067127f, 0.000000f, 0.000000f, 0.000000f, -0.001606f, -0.014193f, 0.038280f };
static const float weather_forecast_layer_3_weights[900] = { -0.093465f, 0.147947f, 0.275978f, -0.247251f, 0.239904f, 0.009560f, -0.033434f, -0.149867f, 0.148215f, 0.101524f, -0.252442f, -0.269567f, 0.184160f, -0.051341f, -0.192658f, -0.299612f, 0.233992f, 0.113360f, 0.170480f, 0.273300f, 0.166447f, 0.170149f, 0.013258f, 0.033412f, 0.282225f, 0.195303f, 0.257054f, 0.084877f, -0.208504f, 0.260201f, 0.295343f, -0.182163f, 0.059094f, -0.366747f, 0.141200f, -0.150128f, 0.204706f, 0.065371f, -0.243730f, -0.348697f, 0.239655f, 0.138496f, 0.052160f, 0.017735f, 0.190898f, 0.150544f, 0.135829f, -0.193589f, 0.108441f, 0.297013f, -0.312990f, 0.186084f, -0.294392f, -0.020849f, -0.269984f, -0.157945f, -0.233897f, 0.222680f, -0.118214f, 0.275464f, -0.173978f, 0.314538f, 0.170935f, -0.153885f, -0.034673f, -0.279602f, -0.126543f, -0.208461f, -0.287563f, -0.000410f, 0.263345f, -0.020603f, -0.193172f, 0.256228f, 0.049640f, 0.269409f, 0.112464f, 0.118925f, -0.035867f, 0.031857f, 0.017996f, -0.093716f, 0.256905f, 0.187748f, -0.226303f, 0.011886f, 0.221674f, -0.164214f, 0.208955f, -0.275342f, 0.228030f, -0.129984f, 0.076847f, 0.272046f, 0.032674f, 0.206734f, -0.315573f, 0.271643f, -0.049396f, -0.037909f, 0.249073f, -0.061754f, -0.114879f, -0.006641f, 0.096991f, -0.290782f, -0.220271f, 0.307261f, 0.144410f, 0.028489f, 0.170972f, 0.044486f, 0.164182f, -0.066290f, 0.104173f, 0.281238f, -0.289246f, 0.004400f, 0.057726f, -0.266640f, 0.213028f, -0.138888f, -0.212243f, -0.287709f, 0.323655f, -0.014653f, 0.016477f, -0.047552f, -0.301497f, -0.106638f, 0.230789f, -0.056252f, -0.191756f, -0.011941f, 0.142314f, 0.180304f, 0.223781f, -0.191948f, -0.332450f, 0.344571f, -0.203687f, 0.157411f, -0.140025f, 0.245680f, 0.176178f, -0.140614f, -0.186055f, -0.089560f, 0.152932f, -0.107028f, 0.026436f, 0.231708f, 0.150416f, 0.087018f, 0.159459f, -0.059814f, 0.203502f, -0.237540f, 0.142382f, -0.060686f, -0.081098f, 0.123989f, 0.274332f, -0.022568f, 0.121336f, -0.098544f, -0.157509f, 0.141085f, 0.184473f, 0.073392f, 0.174459f, -0.261728f, -0.276817f, 0.049981f, 0.122766f, -0.196050f, -0.251958f, 0.129093f, 0.272734f, 0.260787f, -0.089509f, -0.149673f, 0.074155f, 0.291005f, 0.156274f, -0.130997f, -0.010361f, 0.155364f, -0.150710f, -0.064064f, 0.194383f, -0.305991f, -0.210782f, -0.065218f, 0.092948f, -0.104204f, -0.113019f, 0.113221f, -0.230057f, 0.285153f, -0.165308f, -0.130298f, 0.010702f, 0.046694f, -0.240229f, -0.222080f, -0.128125f, 0.162083f, 0.158365f, 0.308112f, -0.227545f, 0.228075f, -0.219490f, -0.012153f, -0.054542f, -0.238938f, -0.059337f, 0.249889f, -0.219917f, -0.024216f, -0.008101f, 0.237926f, 0.284945f, 0.204473f, 0.288977f, 0.249432f, -0.093900f, 0.078624f, -0.275584f, -0.219133f, -0.091189f, -0.069175f, 0.025483f, -0.051727f, 0.083252f, -0.034977f, 0.049361f, -0.125070f, -0.071877f, 0.017995f, 0.111937f, -0.022718f, -0.352573f, 0.171125f, 0.240913f, 0.244516f, 0.036848f, -0.136226f, -0.123227f, 0.128573f, -0.313970f, -0.188498f, -0.078509f, 0.236321f, -0.240371f, 0.040430f, 0.124899f, 0.034012f, 0.096324f, 0.198239f, 0.088346f, -0.269604f, -0.039159f, -0.068496f, -0.255786f, -0.019455f, 0.027293f, -0.120817f, 0.239297f, -0.121014f, 0.067867f, 0.144686f, 0.138862f, -0.173995f, -0.122515f, -0.318105f, 0.188098f, 0.007318f, 0.296635f, 0.091019f, -0.069117f, -0.139038f, -0.233530f, 0.109015f, -0.157687f, 0.203439f, -0.142250f, -0.247426f, 0.333446f, -0.153150f, 0.269262f, -0.270689f, -0.277616f, 0.276738f, -0.197743f, 0.164701f, 0.149877f, -0.052944f, 0.299482f, -0.217087f, 0.004800f, -0.233471f, -0.287276f, -0.221355f, 0.162123f, -0.235362f, -0.172311f, 0.110728f, -0.063753f, 0.165345f, -0.060277f, 0.207995f, -0.076958f, -0.175850f, 0.207977f, 0.260009f, -0.117384f, 0.298590f, 0.041573f, 0.278330f, 0.017760f, -0.046877f, 0.031539f, -0.254812f, 0.208983f, -0.033681f, -0.107947f, -0.051786f, -0.280405f, -0.191851f, 0.039209f, 0.258711f, -0.022478f, 0.196680f, 0.184554f, 0.294681f, -0.304890f, -0.052466f, 0.064179f, -0.126087f, -0.197527f, 0.053070f, 0.112999f, 0.189442f, -0.075996f, 0.086703f, -0.155711f, -0.078041f, -0.065917f, -0.090902f, -0.131872f, 0.148262f, 0.174826f, -0.199208f, 0.101016f, -0.172529f, -0.180230f, 0.236676f, 0.046966f, -0.301479f, -0.200821f, 0.160082f, 0.110655f, 0.217994f, -0.136558f, 0.049381f, -0.097371f, -0.259738f, -0.192174f, -0.016290f, -0.214033f, -0.034412f, 0.198309f, -0.133731f, -0.230273f, -0.176818f, -0.289285f, -0.047224f, 0.060257f, -0.220225f, -0.087917f, -0.144612f, -0.150244f, 0.297568f, -0.013252f, -0.180641f, -0.315857f, -0.148600f, 0.087182f, 0.082285f, 0.300388f, -0.060174f, -0.016796f, -0.238609f, 0.014410f, -0.153361f, -0.145192f, -0.093485f, 0.160527f, -0.108365f, 0.216345f, -0.271750f, 0.288735f, 0.174577f, 0.256612f, -0.071741f, -0.179512f, 0.140859f, 0.170207f, 0.156838f, -0.000806f, 0.115208f, 0.176730f, -0.205693f, -0.291302f, -0.087743f, 0.218132f, 0.281765f, -0.107044f, -0.073996f, -0.289783f, -0.091471f, 0.212102f, 0.112631f, -0.141318f, 0.088372f, -0.385862f, 0.253911f, -0.178638f, 0.266901f, -0.325517f, 0.314887f, 0.057115f, -0.008199f, -0.251903f, -0.111491f, -0.414879f, 0.176064f, 0.192774f, 0.184601f, 0.022686f, 0.178634f, 0.255207f, -0.051865f, -0.065835f, 0.144271f, -0.092660f, 0.327620f, 0.202836f, 0.175315f, 0.112627f, 0.226340f, 0.032388f, -0.138028f, -0.119022f, -0.129348f, -0.083332f, 0.111196f, -0.233572f, 0.111830f, -0.237589f, -0.283933f, 0.182650f, 0.305754f, 0.152551f, -0.125234f, -0.120878f, -0.146631f, 0.298435f, -0.248084f, 0.156026f, 0.198712f, 0.086095f, 0.160174f, -0.258480f, -0.075696f, -0.259668f, 0.265951f, 0.100252f, 0.191669f, 0.088567f, -0.173979f, 0.155810f, 0.014748f, -0.153840f, -0.003069f, -0.062380f, 0.064518f, -0.011789f, -0.015649f, -0.248311f, 0.103790f, -0.205288f, -0.232780f, -0.104935f, 0.062862f, 0.121106f, -0.295585f, 0.105252f, 0.191322f, -0.281933f, 0.238457f, -0.035166f, 0.053645f, 0.005545f, -0.274201f, -0.185413f, 0.068309f, 0.300837f, 0.016301f, -0.130198f, 0.163241f, 0.131624f, -0.292863f, 0.169742f, -0.304411f, -0.240734f, -0.187060f, -0.197355f, 0.153062f, -0.096146f, 0.005286f, -0.135780f, 0.114414f, 0.034341f, -0.150262f, 0.195285f, 0.024427f, 0.289352f, 0.234667f, -0.167121f, 0.012955f, 0.274634f, 0.147291f, 0.218619f, 0.291946f, 0.158861f, -0.117873f, -0.015195f, -0.136364f, 0.309673f, 0.120339f, 0.171238f, -0.013483f, 0.177679f, -0.102378f, 0.208367f, 0.030703f, 0.044093f, 0.272884f, 0.010641f, -0.246505f, -0.047358f, 0.077910f, -0.282209f, -0.248315f, 0.083335f, 0.236768f, -0.167867f, -0.071574f, -0.029390f, 0.223510f, -0.168505f, -0.202441f, 0.177244f, 0.152353f, -0.136841f, -0.086230f, -0.314302f, -0.080778f, -0.052829f, -0.269096f, -0.125614f, 0.015933f, 0.055484f, -0.129040f, 0.230521f, 0.027587f, 0.217212f, -0.212497f, 0.003770f, -0.178979f, -0.149022f, -0.131181f, -0.278800f, 0.220390f, 0.303834f, -0.301603f, 0.114994f, -0.247598f, 0.234240f, 0.102899f, 0.284666f, -0.224020f, -0.136737f, 0.256058f, 0.249519f, 0.134707f, -0.043889f, 0.242754f, -0.009638f, 0.248508f, -0.129270f, -0.249090f, -0.089583f, 0.242216f, -0.128897f, 0.307242f, 0.189779f, -0.213323f, 0.311068f, 0.279940f, 0.048248f, 0.010053f, -0.210515f, -0.267974f, 0.172318f, 0.122601f, -0.044001f, -0.088142f, 0.014910f, -0.255444f, 0.115260f, -0.226781f, -0.128997f, -0.016979f, -0.285287f, -0.296873f, -0.294230f, 0.039638f, -0.096152f, -0.308063f, -0.275972f, 0.126144f, 0.257800f, -0.210190f, -0.253712f, 0.202001f, 0.264205f, -0.248807f, -0.144003f, 0.180305f, -0.312641f, -0.124738f, 0.164984f, 0.006267f, -0.219309f, -0.053025f, 0.234407f, 0.134016f, 0.154956f, 0.088865f, 0.257986f, -0.147619f, -0.119415f, -0.310466f, -0.276437f, 0.136260f, -0.010442f, -0.108110f, 0.240413f, 0.188687f, -0.045932f, -0.298288f, 0.069867f, -0.074968f, 0.233776f, -0.029253f, -0.168608f, -0.098503f, 0.180542f, -0.226818f, -0.073225f, 0.056291f, -0.126228f, 0.218167f, -0.065226f, 0.240049f, -0.050844f, 0.168824f, -0.208306f, 0.207895f, -0.102284f, -0.305101f, -0.282324f, 0.053247f, 0.014916f, 0.174138f, 0.133237f, -0.006347f, 0.210003f, -0.173550f, -0.241199f, -0.159830f, 0.266284f, 0.248650f, 0.300073f, -0.088101f, 0.210549f, 0.143812f, 0.311144f, 0.096765f, -0.141158f, -0.055926f, -0.213193f, -0.193971f, 0.239953f, -0.214473f, -0.274300f, -0.117938f, -0.148040f, -0.066850f, -0.219092f, -0.068962f, -0.026243f, -0.096422f, 0.176723f, -0.252004f, 0.114473f, -0.180443f, 0.103900f, -0.311322f, -0.066567f, 0.043099f, -0.026919f, 0.108674f, -0.221879f, 0.283889f, 0.203974f, -0.302427f, 0.185323f, -0.272382f, -0.248042f, 0.060103f, 0.149451f, 0.295288f, 0.167263f, -0.150386f, 0.007948f, 0.249474f, 0.006113f, 0.025913f, -0.216595f, -0.263293f, 0.133950f, -0.283498f, -0.066490f, 0.084392f, 0.110511f, -0.314835f, 0.043310f, -0.220505f, -0.056775f, -0.165868f, -0.009138f, -0.213663f, 0.185810f, -0.201334f, -0.169915f, -0.303184f, -0.103170f, -0.208356f, 0.103732f, 0.022197f, -0.264932f, 0.109484f, -0.027125f, 0.217534f, -0.204524f, 0.062704f, 0.082061f, -0.173827f, -0.277195f, -0.288645f, -0.309477f, 0.215578f, -0.206773f, 0.039776f, 0.060897f, -0.196905f, 0.014648f, -0.286209f, -0.210288f, -0.302331f, -0.042961f, 0.168482f, 0.175672f, 0.137384f, 0.305400f, -0.292023f, 0.278719f, 0.058706f, 0.276362f, -0.040804f, -0.206106f, 0.225553f, 0.112661f, -0.274846f, -0.283029f, 0.279445f, -0.113131f, 0.259468f, -0.028362f, -0.243789f, -0.188105f, 0.033635f, -0.264108f, -0.242117f, -0.159920f, -0.091844f, -0.151341f, 0.290197f, 0.028681f, 0.097238f, -0.149572f, 0.278140f, 0.082489f, 0.224634f, 0.280006f, -0.168647f, 0.196433f, -0.114922f, -0.099853f, -0.206376f, 0.058765f, 0.068556f, -0.290784f, 0.288937f, -0.239315f, 0.242417f, 0.309973f, 0.263100f, 0.213398f, 0.033141f, 0.106971f, 0.115638f, -0.236159f, 0.117894f, -0.070891f, 0.196768f, 0.009587f, -0.143598f, 0.101629f, -0.131675f, 0.235834f, 0.105758f, -0.104694f, -0.020894f, 0.189809f, 0.094554f, -0.122337f, 0.186604f, 0.028192f, -0.267483f, 0.028634f, -0.030428f, -0.228041f, -0.248983f, -0.148455f, 0.019655f, -0.108594f, 0.240887f, 0.062236f, 0.055478f, -0.063720f, -0.098498f, -0.221909f, -0.063150f, -0.195978f, -0.056747f, -0.202101f, 0.021721f, -0.056792f, -0.295712f, -0.246827f, -0.026652f, -0.240779f, 0.311693f, 0.048575f, 0.103019f, 0.200249f, 0.132849f, -0.232281f, -0.157664f, 0.101360f, -0.193051f, 0.257902f, -0.263206f, -0.210804f, -0.285969f, 0.170304f, 0.277114f, 0.078436f, -0.294918f, 0.305107f, 0.186155f, -0.222562f, -0.289833f, 0.069294f, 0.196379f };
static const float weather_forecast_layer_4_biases[30] = { 0.006159f, -0.042053f, 0.000000f, 0.000000f, 0.022548f, -0.005298f, 0.011443f, 0.001698f, -0.024473f, -0.025427f, -0.007014f, -0.017765f, 0.000000f, -0.023051f, -0.027914f, 0.003813f, -0.017804f, 0.014552f, -0.010406f, 0.018476f, -0.071458f, -0.012421f, -0.018582f, 0.006170f, -0.085882f, 0.037000f, -0.007255f, -0.010664f, 0.000000f, -0.030172f };
static const float weather_forecast_layer_4_weights[900] = { 0.266106f, 0.003617f, -0.137744f, 0.096511f, -0.119395f, 0.116943f, -0.197816f, 0.227956f, -0.005848f, 0.157763f, 0.119840f, 0.303548f, -0.272433f, 0.129022f, 0.133537f, 0.183342f, 0.179562f, 0.304014f, 0.248229f, 0.191063f, -0.017331f, 0.299062f, 0.215161f, 0.176659f, 0.158417f, -0.058835f, 0.034510f, 0.337580f, -0.174375f, 0.182045f, 0.220405f, 0.280252f, -0.050624f, -0.175076f, -0.155191f, -0.188506f, 0.114936f, -0.251573f, 0.198253f, -0.089164f, -0.035593f, 0.263217f, -0.075700f, 0.157387f, -0.193627f, 0.281083f, 0.069198f, -0.203613f, -0.195843f, 0.077758f, 0.297719f, 0.049778f, 0.057166f, 0.169271f, -0.153481f, -0.235852f, -0.070275f, -0.181224f, -0.069060f, -0.256868f, -0.333332f, -0.176001f, -0.286920f, -0.096778f, 0.210824f, 0.150145f, -0.108645f, 0.015929f, 0.179385f, 0.021155f, 0.092728f, 0.125977f, 0.033079f, 0.152282f, -0.290283f, 0.087563f, 0.165535f, 0.345966f, -0.246257f, 0.310454f, 0.251770f, -0.042480f, 0.131838f, -0.068189f, -0.357744f, -0.133618f, 0.211453f, 0.191602f, -0.062994f, 0.080309f, 0.243613f, 0.145347f, -0.142836f, 0.160619f, 0.236855f, 0.006246f, 0.046798f, 0.203488f, 0.181553f, -0.277693f, -0.060135f, 0.301426f, 0.038913f, -0.139157f, -0.235419f, 0.125130f, 0.116136f, 0.052159f, 0.307359f, -0.278381f, -0.204076f, -0.168837f, -0.298097f, -0.188423f, -0.262983f, -0.190741f, 0.221843f, 0.136849f, 0.062312f, -0.125163f, 0.150024f, 0.094871f, -0.044651f, -0.036522f, -0.298184f, -0.105505f, -0.134724f, 0.341302f, -0.113735f, -0.114302f, 0.078792f, 0.312056f, -0.242943f, -0.232201f, -0.091097f, 0.331355f, -0.147247f, -0.270548f, 0.042328f, -0.239542f, -0.005692f, 0.241399f, 0.283214f, -0.040684f, 0.024665f, 0.055474f, -0.360184f, -0.294996f, -0.255258f, 0.063710f, 0.272612f, -0.033097f, -0.175172f, -0.269627f, -0.042933f, -0.208994f, -0.125868f, 0.090755f, 0.056978f, 0.094629f, 0.154160f, 0.089100f, -0.303057f, 0.263254f, 0.243826f, -0.053717f, -0.257230f, 0.173957f, -0.005745f, -0.091911f, 0.070735f, -0.066840f, -0.042096f, -0.219750f, -0.323285f, -0.233197f, 0.156956f, 0.127680f, -0.186588f, -0.069882f, -0.027993f, 0.000427f, -0.023298f, 0.033699f, 0.053899f, 0.281135f, -0.173448f, 0.305391f, 0.021417f, -0.182580f, 0.013325f, -0.040777f, -0.211076f, -0.081670f, 0.210636f, -0.052898f, -0.089514f, -0.010655f, 0.098343f, 0.104266f, 0.038088f, -0.202662f, 0.316482f, 0.023369f, -0.062650f, -0.242639f, -0.228063f, -0.147723f, 0.025321f, 0.292825f, -0.150774f, -0.061159f, 0.283137f, 0.164596f, 0.111416f, -0.306460f, -0.156858f, 0.293634f, 0.021174f, -0.279968f, 0.157871f, 0.272448f, 0.269950f, -0.132876f, 0.159362f, 0.228041f, 0.055835f, 0.007543f, -0.279549f, 0.287128f, 0.037065f, 0.178237f, -0.218230f, 0.036557f, -0.144995f, -0.226435f, -0.105472f, -0.257105f, -0.314162f, 0.237269f, 0.283862f, 0.147940f, -0.040650f, 0.128163f, -0.106058f, -0.189020f, 0.153023f, -0.082943f, -0.120164f, 0.103644f, 0.032305f, 0.247772f, 0.040572f, -0.063814f, 0.254508f, -0.179692f, 0.286576f, -0.219717f, 0.231893f, 0.281419f, -0.262465f, 0.177848f, 0.141910f, -0.149198f, -0.049652f, 0.243183f, 0.276273f, -0.027866f, 0.029179f, -0.252795f, 0.235870f, 0.243805f, -0.238683f, -0.121743f, 0.346161f, 0.026347f, 0.117368f, -0.018793f, 0.125748f, -0.260550f, -0.310467f, -0.112994f, 0.130928f, -0.181780f, 0.167168f, 0.040695f, 0.040079f, -0.038410f, 0.170573f, 0.208329f, -0.074331f, 0.271920f, -0.086093f, 0.134117f, 0.227195f, 0.274381f, 0.241837f, 0.045322f, -0.307524f, -0.130262f, -0.192312f, 0.203958f, -0.045244f, 0.308904f, 0.148323f, -0.295050f, 0.153703f, 0.091231f, -0.021497f, 0.235711f, 0.066554f, 0.297480f, 0.161550f, 0.074232f, -0.201715f, -0.027754f, 0.276447f, 0.293221f, -0.041738f, 0.205856f, 0.186683f, -0.252636f, -0.169804f, -0.257695f, -0.274997f, -0.148490f, 0.089123f, -0.134767f, -0.267824f, 0.267390f, -0.373769f, 0.115086f, 0.099015f, -0.158537f, 0.175611f, 0.168247f, 0.304496f, -0.281261f, -0.287340f, -0.179009f, -0.073872f, -0.168058f, -0.169210f, 0.316056f, -0.089298f, 0.113638f, -0.252033f, -0.100931f, 0.163911f, 0.292260f, -0.058506f, 0.138755f, -0.199048f, -0.246390f, -0.360755f, -0.199247f, -0.296741f, -0.337303f, -0.180913f, -0.110172f, -0.089913f, 0.083570f, -0.083262f, -0.240829f, 0.171053f, -0.194140f, 0.341274f, -0.224421f, 0.274585f, 0.214084f, -0.028580f, -0.179501f, -0.000537f, -0.041812f, 0.080728f, -0.129300f, -0.319732f, 0.164085f, -0.015045f, 0.105827f, 0.199084f, -0.222272f, 0.024734f, 0.279963f, -0.125783f, 0.401360f, -0.198301f, -0.021961f, -0.271150f, -0.216721f, 0.184554f, -0.111269f, -0.027677f, -0.155438f, 0.080427f, 0.161386f, 0.246668f, 0.316848f, 0.088314f, -0.020937f, 0.141811f, 0.327118f, -0.056519f, 0.033955f, 0.295167f, -0.158058f, -0.104276f, 0.100361f, 0.238799f, 0.273345f, -0.251814f, -0.057965f, 0.274706f, 0.108641f, 0.127926f, -0.008407f, 0.204029f, 0.279512f, 0.286341f, -0.186696f, 0.146361f, 0.203284f, -0.207125f, 0.171157f, 0.072196f, 0.237391f, -0.097937f, 0.054764f, 0.063132f, 0.174397f, 0.005512f, -0.142338f, -0.132186f, -0.042479f, 0.099830f, -0.221237f, -0.175298f, 0.231764f, 0.094852f, 0.063172f, 0.227632f, -0.072918f, 0.000290f, -0.075737f, -0.058686f, 0.014240f, -0.228518f, -0.006982f, 0.038960f, 0.057232f, -0.103379f, -0.240969f, -0.176039f, -0.278742f, 0.011199f, -0.198560f, 0.066961f, -0.114967f, 0.009227f, -0.184872f, 0.216377f, 0.070400f, -0.169939f, -0.120137f, 0.151888f, 0.166504f, -0.034630f, 0.018298f, 0.049020f, 0.070211f, -0.288055f, -0.214560f, -0.041741f, -0.286800f, 0.008837f, 0.204945f, -0.117239f, -0.082772f, -0.047952f, -0.266112f, 0.016613f, -0.076443f, 0.075518f, 0.085593f, -0.001229f, 0.192601f, -0.161532f, 0.367983f, -0.279216f, -0.029304f, -0.252259f, -0.023652f, 0.180144f, 0.188429f, 0.190204f, 0.119746f, -0.118850f, 0.135749f, 0.070268f, 0.157063f, 0.099241f, 0.067032f, 0.427277f, -0.268584f, 0.054885f, -0.096494f, -0.167645f, -0.039679f, -0.314254f, -0.053694f, -0.202208f, 0.054868f, 0.301319f, -0.249566f, 0.237326f, -0.306967f, 0.159618f, -0.002107f, 0.286228f, 0.181577f, -0.207721f, 0.165643f, -0.120251f, 0.309383f, 0.301227f, -0.209906f, 0.038889f, -0.054612f, 0.145339f, 0.065230f, -0.223811f, -0.310360f, -0.197324f, -0.300550f, -0.280930f, 0.134872f, 0.183583f, -0.184511f, -0.316198f, 0.137100f, 0.313473f, -0.133437f, 0.030530f, -0.314435f, -0.281436f, -0.272838f, -0.110410f, -0.165853f, 0.028669f, 0.230851f, 0.292930f, -0.024800f, -0.084461f, 0.296152f, -0.050830f, 0.132370f, 0.122498f, 0.212216f, -0.152824f, -0.104566f, -0.193620f, 0.211944f, 0.226872f, 0.076877f, 0.009900f, 0.352449f, -0.004736f, 0.258833f, -0.136191f, -0.031595f, 0.095564f, 0.279812f, -0.315008f, -0.005755f, -0.209839f, -0.227215f, 0.101783f, 0.232135f, -0.217594f, -0.313463f, -0.211766f, -0.047725f, -0.056182f, -0.104328f, -0.066024f, 0.116999f, 0.231319f, -0.267811f, 0.284860f, -0.210555f, -0.264289f, 0.317032f, -0.144937f, 0.003566f, 0.149593f, -0.138107f, -0.011080f, 0.249889f, -0.007977f, 0.201479f, 0.091391f, 0.261493f, -0.002528f, 0.004960f, 0.242634f, -0.289652f, 0.176143f, 0.173508f, -0.283990f, 0.200760f, 0.223810f, 0.203818f, 0.001277f, -0.145225f, -0.092356f, -0.059315f, 0.226775f, -0.255157f, 0.101415f, 0.137672f, 0.192632f, -0.163533f, -0.048674f, -0.203082f, -0.123321f, -0.069030f, 0.038236f, -0.047434f, -0.163954f, 0.174655f, 0.010175f, 0.214338f, -0.095104f, 0.144978f, -0.027417f, 0.240244f, 0.130383f, 0.208687f, 0.065585f, 0.073747f, 0.169715f, -0.079996f, 0.198914f, 0.303080f, -0.064159f, -0.208653f, 0.013013f, 0.313752f, 0.201926f, 0.196529f, -0.191987f, -0.065844f, -0.009696f, 0.072434f, 0.223871f, -0.015648f, 0.193422f, 0.050122f, -0.162651f, -0.000133f, -0.212514f, 0.211926f, -0.189809f, 0.120445f, -0.057773f, -0.129911f, 0.096542f, 0.063733f, 0.058448f, 0.163913f, -0.019883f, 0.050383f, -0.231922f, 0.297400f, -0.253884f, -0.250513f, 0.166160f, -0.269559f, -0.274343f, -0.074479f, -0.308731f, -0.081602f, -0.239285f, 0.063019f, 0.244784f, -0.071830f, 0.197202f, -0.107449f, 0.210128f, 0.225175f, 0.014199f, 0.182871f, -0.081452f, -0.311920f, 0.252718f, 0.120178f, -0.101902f, -0.316420f, 0.096741f, -0.088192f, 0.057694f, -0.262843f, -0.188412f, 0.249228f, -0.243439f, -0.376076f, -0.258182f, 0.412752f, -0.220557f, 0.344609f, 0.056352f, 0.091850f, 0.139552f, -0.028265f, -0.110578f, 0.073480f, 0.107467f, -0.069865f, 0.311356f, -0.001444f, -0.147891f, 0.075520f, -0.105859f, 0.308836f, 0.000437f, -0.109104f, 0.037388f, -0.249353f, -0.198145f, 0.148005f, -0.161258f, -0.174791f, -0.301282f, -0.183930f, -0.191633f, -0.089626f, -0.036503f, -0.226263f, 0.025480f, 0.285922f, 0.184213f, 0.222422f, 0.005790f, -0.077795f, -0.110336f, 0.091750f, -0.293589f, 0.134312f, -0.084831f, 0.117264f, 0.281370f, -0.242392f, 0.301846f, 0.064968f, -0.218731f, -0.083131f, -0.233342f, -0.311722f, -0.212821f, 0.260271f, -0.219112f, 0.212373f, -0.043908f, -0.053461f, 0.033382f, -0.267155f, -0.212958f, 0.128130f, 0.249172f, 0.112255f, 0.099042f, 0.293196f, -0.284534f, 0.105710f, -0.163577f, -0.212413f, 0.213197f, -0.149890f, 0.046240f, 0.271408f, 0.262194f, -0.246152f, -0.164724f, 0.241897f, -0.166437f, -0.170785f, -0.145927f, 0.166506f, 0.236505f, -0.219045f, -0.149815f, -0.124475f, -0.190662f, 0.186887f, -0.213589f, -0.017077f, -0.312222f, 0.065747f, 0.095472f, 0.067845f, 0.297576f, 0.028675f, -0.080892f, 0.258435f, -0.288274f, -0.188536f, -0.002669f, 0.236387f, 0.104185f, 0.147965f, 0.031978f, 0.137606f, -0.009560f, -0.283914f, 0.253836f, -0.091064f, -0.169482f, 0.121463f, -0.271803f, -0.175449f, -0.014632f, -0.298928f, -0.194692f, 0.258562f, 0.271803f, -0.267165f, -0.183150f, 0.192465f, -0.291112f, -0.228206f, 0.206703f, -0.061928f, -0.194916f, -0.006203f, -0.022182f, -0.131846f, 0.019432f, -0.342713f, 0.104900f, -0.271409f, -0.043858f, -0.024394f, 0.187423f, 0.092612f, 0.051948f, 0.119553f, -0.240906f, 0.254753f, 0.016057f, -0.133303f, 0.097592f, -0.220571f, 0.175362f, -0.002473f, -0.083690f, 0.188557f, -0.193637f, 0.030551f, -0.176817f, -0.041175f, -0.365157f, -0.195192f, 0.126459f, -0.013181f, 0.205378f, 0.267079f, 0.123742f, -0.267081f, -0.130218f, 0.215535f, -0.152894f, -0.301307f, -0.066179f, 0.096868f, 0.279782f, 0.263814f, 0.031473f, 0.005783f, -0.273283f, -0.011929f, 0.196856f, -0.019562f, -0.002063f, -0.176822f, -0.393505f, -0.065762f, 0.006467f, 0.278609f, -0.143416f, 0.073875f, 0.237207f, -0.150911f, -0.044322f, 0.197644f, 0.112473f, 0.137648f, 0.209414f, 0.058976f, -0.052642f, 0.239299f };
static const float weather_forecast_layer_5_biases[30] = { -0.028393f, -0.017172f, 0.000000f, -0.031883f, -0.107442f, -0.057535f, -0.040260f, -0.028611f, 0.069122f, 0.017564f, -0.006472f, -0.041880f, -0.027982f, 0.023221f, 0.014192f, 0.000000f, 0.007675f, -0.033505f, 0.000000f, -0.005665f, -0.017842f, -0.035006f, -0.011640f, -0.001107f, -0.021198f, 0.026313f, 0.000000f, 0.017710f, -0.012253f, -0.003067f };
static const float weather_forecast_layer_5_weights[900] = { 0.232071f, -0.199079f, 0.157733f, 0.250485f, -0.270158f, 0.011490f, -0.000838f, -0.255456f, -0.038224f, 0.155482f, 0.070425f, 0.047544f, 0.161105f, 0.303049f, 0.330981f, -0.225588f, 0.180756f, -0.046956f, -0.239477f, 0.085396f, 0.275054f, -0.121294f, -0.154420f, 0.309100f, -0.151639f, -0.106002f, 0.069445f, 0.326247f, 0.116615f, 0.233506f, 0.257149f, 0.088754f, -0.158120f, 0.040025f, -0.145587f, -0.028985f, -0.056395f, -0.250008f, -0.056246f, 0.187766f, 0.251166f, 0.256912f, 0.072400f, -0.290488f, 0.110356f, -0.025937f, -0.039815f, 0.033088f, -0.283602f, 0.265227f, 0.237438f, -0.132013f, 0.126118f, 0.014119f, -0.022572f, 0.314477f, 0.155689f, -0.213679f, -0.163502f, -0.201445f, -0.241927f, -0.217559f, -0.138269f, -0.090251f, -0.036790f, 0.263198f, 0.155701f, -0.304634f, 0.302947f, -0.100288f, 0.212711f, -0.293525f, 0.052465f, -0.152880f, -0.233085f, -0.284231f, 0.139274f, 0.229468f, -0.223299f, 0.306961f, -0.078138f, -0.247806f, 0.245773f, -0.019223f, 0.091532f, 0.107553f, 0.040701f, 0.118712f, 0.143009f, 0.175655f, 0.007954f, -0.270291f, 0.084733f, -0.138109f, -0.100148f, 0.263893f, 0.082194f, -0.111437f, 0.185914f, 0.034603f, 0.219791f, -0.220735f, -0.024920f, 0.049813f, 0.122699f, -0.058104f, 0.117620f, -0.168023f, 0.130559f, -0.011736f, 0.188431f, -0.057962f, 0.315967f, 0.066272f, -0.097010f, 0.095911f, 0.018836f, -0.075944f, 0.037425f, -0.152012f, 0.090963f, -0.324632f, 0.277151f, 0.226638f, 0.265796f, -0.109963f, 0.061659f, 0.201170f, -0.270557f, -0.194133f, -0.170385f, -0.122274f, 0.339159f, -0.025494f, -0.301917f, -0.009354f, 0.028872f, 0.162695f, -0.257778f, 0.097815f, -0.272507f, 0.060866f, -0.044065f, 0.134750f, -0.058139f, -0.016728f, -0.048362f, 0.081178f, 0.157291f, 0.156551f, -0.159973f, -0.245379f, 0.076193f, 0.272223f, 0.308452f, -0.171754f, 0.135718f, -0.025554f, 0.248519f, -0.098492f, 0.070389f, -0.074214f, -0.142252f, -0.041266f, 0.158442f, -0.040135f, -0.254019f, -0.120762f, -0.249376f, 0.129397f, 0.101236f, -0.023850f, -0.162461f, -0.058030f, -0.041501f, 0.311408f, 0.129411f, 0.186911f, -0.240118f, 0.218249f, 0.168074f, -0.041563f, -0.268638f, -0.005414f, 0.205548f, 0.071835f, 0.197387f, -0.127537f, -0.118048f, 0.066811f, -0.168502f, -0.252633f, -0.084245f, 0.098747f, 0.192470f, 0.154481f, -0.145830f, -0.036790f, -0.290390f, 0.197110f, 0.072930f, -0.136468f, -0.100865f, -0.052516f, 0.144224f, 0.035967f, -0.178723f, -0.173007f, 0.222988f, -0.213117f, -0.060887f, 0.040599f, -0.119083f, -0.281567f, 0.068460f, 0.035064f, -0.100189f, -0.074878f, 0.035623f, 0.299979f, 0.140385f, 0.084783f, -0.079751f, 0.019176f, 0.244198f, 0.045382f, -0.062758f, 0.299252f, -0.192315f, -0.072573f, 0.042644f, 0.227778f, 0.150686f, 0.258952f, -0.201195f, -0.115716f, -0.158117f, -0.339354f, -0.059362f, -0.163969f, 0.238921f, -0.167716f, -0.206936f, -0.109263f, 0.200114f, -0.252325f, -0.149781f, 0.038266f, 0.148044f, -0.269565f, -0.035807f, -0.162643f, 0.096242f, -0.214719f, 0.226164f, -0.257749f, -0.081820f, 0.332588f, 0.198902f, 0.160405f, -0.224739f, 0.101925f, -0.057622f, -0.002863f, -0.130769f, -0.228066f, -0.295228f, -0.141768f, -0.103408f, -0.155534f, -0.122674f, -0.230486f, 0.018920f, -0.192896f, -0.262216f, -0.261838f, 0.244891f, 0.234530f, -0.047853f, 0.109600f, 0.067192f, 0.066611f, 0.009410f, 0.208629f, 0.132201f, -0.254473f, 0.095435f, 0.118280f, -0.290081f, 0.277404f, -0.024547f, 0.215113f, 0.046862f, 0.026130f, -0.218439f, 0.194123f, -0.133280f, -0.324638f, -0.290625f, 0.361464f, 0.027785f, -0.053725f, -0.246350f, -0.325050f, 0.084541f, 0.248023f, -0.111948f, -0.006774f, 0.332963f, -0.133052f, 0.000450f, -0.283455f, -0.131091f, 0.100565f, 0.079761f, -0.142599f, -0.064579f, -0.150624f, 0.052459f, -0.197588f, -0.063262f, -0.081000f, 0.034060f, -0.030406f, 0.278136f, 0.243463f, -0.199550f, -0.248033f, -0.174312f, 0.266776f, -0.268868f, 0.201797f, -0.086982f, -0.200979f, 0.215074f, 0.051122f, -0.350633f, -0.046406f, 0.117008f, 0.040810f, 0.278522f, -0.226206f, 0.271890f, 0.129775f, 0.193037f, -0.246190f, 0.060345f, 0.333835f, -0.048674f, 0.174973f, 0.041865f, 0.220359f, -0.001491f, 0.069512f, -0.072673f, -0.036323f, 0.281325f, -0.214188f, 0.038083f, -0.233679f, -0.123716f, -0.122777f, -0.168854f, 0.113226f, 0.063971f, -0.288239f, -0.102195f, -0.226152f, -0.250819f, 0.263270f, -0.226747f, -0.203939f, 0.251530f, 0.088928f, 0.292031f, -0.055239f, -0.273300f, 0.233213f, -0.034029f, -0.067010f, -0.092331f, 0.180203f, 0.146932f, 0.172348f, -0.054877f, 0.231749f, -0.033792f, 0.240197f, -0.297267f, 0.074197f, -0.164615f, 0.254732f, 0.150009f, 0.214233f, 0.141245f, 0.151624f, 0.246505f, -0.301892f, 0.196916f, 0.050546f, -0.309931f, -0.057602f, 0.278953f, 0.141919f, 0.154187f, 0.091488f, -0.010011f, -0.291755f, -0.056615f, 0.174416f, -0.010106f, -0.303455f, 0.000840f, -0.291938f, 0.188376f, 0.251632f, 0.119158f, 0.017509f, 0.241183f, 0.184263f, -0.294673f, -0.097187f, -0.037416f, 0.293909f, 0.106674f, 0.223337f, -0.307128f, 0.040213f, 0.100792f, 0.019067f, 0.339876f, -0.211719f, 0.070061f, -0.274958f, 0.172469f, -0.214604f, 0.167633f, 0.164430f, -0.228607f, 0.028285f, -0.220013f, 0.274712f, 0.227603f, -0.160047f, -0.172127f, -0.153271f, 0.236004f, 0.266631f, -0.000796f, 0.098889f, 0.036624f, -0.262012f, -0.033595f, -0.199874f, -0.139562f, -0.106657f, -0.014901f, -0.153512f, 0.128213f, 0.232044f, -0.054686f, 0.269288f, 0.310437f, 0.089615f, 0.033265f, -0.009677f, -0.182531f, -0.229784f, -0.285966f, 0.092388f, -0.328833f, -0.097962f, 0.226130f, 0.156707f, -0.016296f, 0.116466f, -0.292081f, -0.280833f, -0.014009f, -0.282637f, -0.186393f, -0.127789f, 0.168054f, -0.198737f, 0.129762f, 0.129545f, 0.004272f, -0.254108f, -0.047989f, -0.226514f, 0.085553f, -0.161292f, -0.135912f, -0.068060f, 0.049873f, -0.020119f, 0.244595f, 0.126887f, 0.229867f, 0.165623f, -0.051784f, -0.003122f, 0.257020f, -0.171303f, 0.203251f, 0.198111f, 0.046366f, 0.037185f, -0.306865f, 0.304600f, 0.242127f, -0.230248f, -0.296672f, -0.034498f, 0.186195f, 0.182202f, 0.183363f, 0.212019f, -0.148019f, -0.218866f, 0.053747f, -0.336351f, -0.264493f, -0.009139f, 0.221271f, -0.119204f, 0.086826f, -0.091668f, 0.175346f, -0.043936f, 0.251151f, -0.166786f, -0.353559f, 0.044858f, -0.091667f, 0.067875f, -0.050673f, 0.138941f, -0.273574f, -0.063241f, 0.054000f, -0.115011f, -0.245493f, -0.273124f, -0.387949f, 0.286446f, -0.187023f, 0.268617f, -0.231767f, -0.056274f, 0.211716f, -0.166015f, -0.160965f, 0.133338f, 0.203187f, -0.234299f, -0.247711f, 0.040501f, -0.130645f, -0.274908f, -0.194168f, -0.070936f, 0.147699f, -0.082243f, 0.037271f, 0.000036f, -0.274535f, 0.285906f, 0.258048f, 0.187217f, -0.366872f, -0.252558f, -0.006503f, 0.035596f, -0.056379f, -0.301577f, 0.135882f, -0.109271f, 0.050162f, 0.023594f, 0.058081f, -0.289397f, -0.124077f, -0.188939f, -0.246686f, -0.126485f, -0.059503f, -0.012109f, 0.082884f, 0.064740f, 0.081471f, -0.155147f, -0.177838f, 0.093413f, -0.025439f, -0.166187f, -0.114782f, 0.105642f, -0.144583f, 0.099819f, 0.142152f, 0.198516f, -0.308933f, 0.151584f, -0.128690f, 0.112627f, -0.220077f, 0.089327f, -0.230034f, 0.191580f, -0.276838f, 0.171465f, 0.032444f, -0.044887f, -0.253163f, -0.205934f, 0.054807f, -0.322155f, -0.176466f, -0.191492f, -0.226687f, -0.284308f, 0.124634f, -0.256523f, -0.114220f, 0.124473f, -0.062968f, -0.147317f, -0.215172f, -0.011856f, -0.014660f, -0.221337f, -0.073514f, -0.039342f, -0.146389f, -0.190113f, -0.223466f, -0.068333f, -0.177036f, -0.197604f, -0.266504f, 0.211391f, 0.088007f, -0.210250f, -0.274635f, -0.063565f, -0.044972f, -0.107626f, -0.082913f, -0.109446f, 0.281861f, -0.322279f, 0.325555f, 0.305358f, -0.146800f, -0.111319f, 0.037004f, 0.118284f, -0.262833f, -0.061820f, 0.103192f, 0.088386f, 0.068944f, 0.181145f, -0.255012f, 0.140317f, -0.305645f, -0.042251f, 0.079331f, 0.048314f, -0.190271f, -0.114027f, 0.172388f, 0.064029f, 0.066650f, -0.137880f, -0.001566f, 0.214969f, 0.182714f, -0.133950f, -0.170997f, 0.081916f, 0.198929f, 0.208210f, 0.201739f, -0.210583f, 0.043995f, 0.168072f, 0.219511f, 0.014632f, -0.003792f, -0.021574f, 0.250497f, 0.275581f, 0.120215f, -0.215994f, 0.119814f, -0.253709f, 0.335632f, -0.181589f, -0.204287f, -0.181190f, 0.229261f, -0.064313f, -0.061668f, 0.071826f, -0.297364f, -0.149625f, -0.089400f, -0.193147f, 0.264518f, 0.029432f, 0.297954f, -0.062840f, 0.161880f, -0.251678f, 0.182094f, -0.076659f, -0.299182f, -0.199962f, -0.231218f, 0.023954f, -0.085730f, 0.164307f, -0.201447f, 0.225278f, -0.225604f, 0.094897f, 0.174081f, -0.188911f, -0.184069f, 0.079321f, 0.184484f, -0.121691f, -0.011955f, -0.216219f, -0.198665f, 0.174482f, -0.251110f, -0.101058f, 0.015139f, -0.031907f, 0.131642f, -0.167355f, -0.098523f, 0.225543f, 0.022689f, 0.267349f, 0.149248f, 0.010251f, -0.202891f, 0.120860f, 0.176967f, -0.285161f, 0.179101f, -0.133127f, -0.062300f, 0.107653f, 0.301286f, 0.038848f, -0.277702f, -0.213041f, -0.195101f, -0.061330f, 0.041266f, 0.207301f, 0.303514f, -0.260532f, -0.309302f, -0.244788f, -0.158608f, -0.194362f, 0.242134f, -0.107710f, 0.170985f, 0.106811f, -0.220502f, 0.296807f, -0.305160f, -0.200093f, 0.292235f, 0.200629f, -0.033275f, 0.034628f, 0.356974f, 0.029977f, -0.109219f, 0.396026f, -0.319714f, -0.209487f, 0.149842f, -0.093881f, -0.211900f, 0.087307f, -0.209141f, 0.285225f, -0.189958f, 0.255325f, -0.224080f, 0.285302f, 0.081678f, 0.002221f, 0.010977f, -0.135272f, 0.018209f, -0.037654f, -0.306686f, 0.183191f, 0.261774f, -0.172169f, 0.228633f, -0.256040f, 0.178004f, 0.214096f, -0.179886f, -0.071006f, 0.136350f, -0.049520f, -0.002999f, -0.229253f, 0.112775f, -0.125820f, -0.051583f, 0.212268f, -0.286804f, -0.295181f, -0.242206f, -0.149914f, -0.059677f, -0.017514f, 0.040809f, -0.187442f, 0.192266f, 0.186375f, 0.023071f, -0.135741f, 0.098124f, 0.061601f, -0.211276f, -0.229973f, -0.169541f, 0.296487f, 0.245700f, 0.137439f, 0.104109f, 0.225731f, -0.001870f, 0.294972f, 0.030869f, -0.043871f, 0.088452f, -0.004380f, 0.086694f, -0.223369f, -0.082323f, -0.266747f, 0.245902f, -0.172696f, 0.073395f, 0.252550f, 0.229196f, -0.230399f, 0.206213f, -0.296134f, -0.213398f, -0.226252f, -0.130561f, 0.076029f, 0.130673f, -0.058520f, -0.158747f, 0.260017f, -0.267249f, 0.272585f, -0.162270f, -0.051995f, -0.063595f, 0.149851f, 0.138549f, 0.268192f, 0.084898f, -0.086569f, 0.035900f, -0.314429f, 0.245975f, -0.234864f, 0.195664f, -0.189256f, 0.007259f, 0.187557f, -0.281897f, -0.306575f, 0.049986f, -0.009378f, -0.179943f, -0.175399f, -0.213319f, -0.120584f, 0.003002f, -0.165080f };
static const float weather_forecast_layer_6_biases[30] = { -0.036246f, -0.065988f, 0.001513f, -0.046202f, -0.042238f, 0.000000f, 0.015239f, -0.026769f, -0.019239f, -0.003351f, -0.021852f, 0.000000f, 0.004987f, -0.023999f, 0.000000f, -0.037475f, -0.024737f, -0.017367f, 0.000249f, -0.034182f, -0.011848f, 0.077687f, 0.003790f, -0.025709f, 0.015509f, -0.012352f, -0.084276f, -0.039438f, 0.000000f, -0.029127f };
static const float weather_forecast_layer_6_weights[900] = { 0.095788f, 0.107739f, -0.123915f, 0.027786f, 0.278602f, -0.116064f, -0.097640f, -0.068491f, -0.186832f, 0.143753f, 0.181850f, -0.108294f, -0.115096f, -0.148749f, -0.068029f, 0.292228f, -0.098837f, -0.144039f, 0.087032f, 0.209043f, 0.124749f, 0.000523f, -0.057665f, -0.190226f, -0.184552f, 0.258377f, 0.144326f, -0.252808f, -0.314419f, -0.146658f, -0.164140f, -0.102809f, -0.216346f, 0.297253f, 0.037476f, 0.064657f, -0.066191f, 0.080079f, 0.137333f, 0.286437f, -0.003462f, 0.298485f, 0.217679f, -0.142823f, 0.029912f, -0.026044f, -0.004242f, -0.279388f, -0.117727f, -0.290872f, 0.111300f, 0.226176f, 0.292270f, -0.146224f, -0.181698f, -0.099130f, 0.189921f, -0.094135f, 0.139528f, -0.276023f, 0.226043f, -0.181164f, -0.174619f, -0.017718f, 0.089612f, 0.251249f, -0.064458f, 0.103836f, -0.199432f, 0.033953f, -0.048483f, -0.249074f, 0.199352f, -0.253812f, 0.226876f, -0.099676f, 0.101701f, 0.168379f, -0.030361f, 0.128007f, -0.020141f, -0.198671f, 0.245908f, 0.275822f, 0.179845f, 0.188972f, -0.225678f, -0.270046f, 0.050697f, -0.116264f, 0.121907f, -0.163981f, -0.098281f, -0.351826f, -0.278344f, 0.205581f, -0.269241f, -0.022204f, 0.139319f, -0.291658f, -0.231065f, 0.005920f, 0.252726f, 0.205233f, 0.109521f, 0.153157f, 0.176394f, 0.193749f, -0.088250f, 0.247649f, 0.232371f, 0.245634f, -0.309928f, 0.077559f, 0.058221f, -0.209789f, 0.060931f, -0.121696f, -0.016082f, 0.133999f, -0.256842f, 0.131382f, 0.197932f, -0.014240f, -0.157200f, -0.054475f, -0.271520f, -0.177307f, 0.018747f, -0.016418f, -0.110326f, -0.306834f, -0.140142f, -0.102729f, -0.024701f, 0.180698f, -0.182460f, -0.058852f, 0.066708f, -0.168047f, 0.214317f, 0.354386f, 0.322841f, 0.219405f, 0.093536f, 0.363806f, 0.207565f, -0.019275f, -0.280802f, 0.371548f, -0.154496f, -0.145390f, -0.057258f, -0.243250f, 0.270507f, -0.185680f, -0.045068f, 0.254379f, -0.092579f, -0.026528f, 0.215797f, -0.073138f, 0.214725f, -0.008289f, -0.262133f, -0.214246f, 0.270022f, -0.078932f, 0.000175f, 0.027500f, -0.006147f, -0.139752f, -0.019056f, 0.239057f, -0.295045f, -0.140330f, -0.037159f, 0.293752f, -0.128851f, 0.117242f, -0.002455f, -0.074062f, -0.143230f, 0.062689f, 0.041837f, -0.198073f, -0.117553f, 0.114388f, -0.071948f, 0.239485f, -0.156157f, 0.290644f, -0.054169f, -0.163090f, -0.065442f, -0.127058f, -0.372951f, -0.140716f, -0.098862f, 0.125276f, -0.232834f, 0.355935f, -0.154130f, 0.046110f, 0.182635f, 0.183185f, -0.037907f, 0.215365f, -0.267388f, 0.177960f, 0.090502f, 0.201526f, -0.182493f, -0.084940f, -0.017846f, 0.167190f, -0.169731f, 0.109848f, 0.416311f, -0.322083f, 0.103520f, 0.094813f, 0.011540f, 0.039716f, -0.277309f, 0.059023f, -0.021173f, -0.054205f, -0.182008f, -0.370781f, 0.080853f, 0.064136f, 0.148059f, 0.267491f, -0.205848f, -0.027321f, -0.005754f, -0.087262f, -0.224233f, 0.005639f, -0.173939f, -0.121791f, 0.252880f, -0.404684f, -0.170638f, 0.122813f, 0.272142f, -0.174951f, 0.086669f, 0.013261f, -0.141326f, -0.199920f, -0.113853f, 0.172073f, 0.012564f, 0.172613f, 0.033694f, 0.269028f, -0.062832f, -0.154887f, 0.223002f, -0.031909f, -0.075622f, 0.014284f, -0.229170f, -0.210245f, -0.101818f, -0.046578f, 0.045278f, -0.189383f, 0.228539f, -0.035384f, 0.101390f, -0.340146f, -0.115300f, 0.014718f, -0.044019f, 0.265114f, 0.232851f, -0.020027f, -0.222678f, -0.029155f, 0.259126f, -0.234317f, 0.044224f, 0.233148f, -0.168127f, -0.207240f, 0.225722f, -0.238878f, -0.211954f, -0.337478f, -0.248074f, 0.002831f, -0.058996f, 0.212806f, 0.157355f, -0.227908f, 0.064926f, 0.222879f, -0.004602f, 0.300626f, 0.139901f, -0.289126f, 0.296747f, -0.271901f, -0.220371f, -0.247079f, 0.210488f, -0.258011f, -0.054723f, 0.212777f, -0.120840f, -0.019696f, 0.076202f, -0.222791f, 0.160851f, -0.112387f, 0.130678f, 0.005792f, 0.101361f, -0.307183f, -0.042072f, -0.074703f, -0.240971f, -0.148473f, -0.153342f, 0.295544f, -0.160595f, -0.320775f, -0.245611f, -0.043745f, 0.271914f, -0.102637f, 0.128366f, 0.141150f, 0.154590f, -0.114452f, -0.012300f, 0.258263f, 0.313104f, 0.179994f, 0.276990f, 0.255878f, -0.290137f, 0.157882f, -0.011034f, -0.058902f, 0.014222f, -0.082191f, 0.275635f, -0.061655f, -0.109756f, 0.236019f, 0.237957f, -0.236561f, 0.016721f, -0.143569f, -0.088358f, -0.288726f, 0.228165f, 0.089636f, 0.231604f, -0.300921f, 0.165190f, -0.219255f, -0.040205f, 0.139721f, 0.283321f, -0.289309f, 0.207188f, 0.033475f, -0.089054f, -0.293336f, -0.284711f, 0.219459f, 0.265965f, 0.305760f, 0.195846f, 0.197782f, 0.139123f, 0.183938f, 0.229123f, 0.009093f, -0.060489f, -0.154705f, 0.143199f, 0.198327f, -0.311155f, -0.215576f, 0.106125f, -0.035578f, 0.201810f, 0.270883f, 0.241540f, -0.151421f, 0.148867f, 0.163433f, 0.219088f, -0.089611f, 0.258040f, -0.249101f, 0.035951f, 0.381056f, 0.044723f, 0.299262f, 0.105321f, 0.245416f, -0.110761f, -0.134868f, 0.035751f, 0.058523f, -0.169957f, 0.047732f, 0.243438f, -0.280148f, -0.341462f, -0.165782f, 0.058880f, -0.128019f, -0.123781f, -0.275265f, 0.261004f, 0.134555f, 0.231949f, -0.300901f, 0.129751f, -0.224833f, 0.217452f, 0.084774f, -0.252211f, -0.034807f, -0.085153f, -0.072953f, -0.260816f, 0.006818f, -0.172488f, -0.258989f, 0.126281f, -0.003145f, 0.067394f, -0.126623f, -0.169389f, -0.147102f, 0.199741f, -0.103738f, -0.184473f, -0.246996f, -0.075160f, 0.235531f, 0.114875f, 0.180347f, -0.210082f, -0.030817f, 0.211340f, -0.196964f, 0.100941f, 0.282543f, 0.137217f, -0.096095f, -0.250966f, 0.068192f, 0.129226f, -0.280130f, 0.288054f, 0.290736f, -0.261519f, 0.276127f, -0.249055f, 0.217957f, 0.134693f, 0.117331f, -0.233025f, -0.047734f, 0.225596f, -0.291164f, -0.182636f, 0.204547f, 0.150232f, 0.160947f, -0.129453f, 0.230681f, -0.043530f, 0.013865f, 0.017557f, -0.219858f, -0.200312f, -0.122483f, 0.027598f, 0.248696f, -0.150525f, 0.187741f, 0.250018f, -0.245481f, 0.000601f, -0.018810f, 0.041821f, -0.231360f, -0.166059f, 0.311056f, -0.166833f, -0.205321f, 0.232184f, 0.022497f, 0.259264f, 0.039819f, 0.124952f, -0.204060f, 0.039838f, -0.210667f, 0.151912f, -0.016344f, 0.349272f, -0.317120f, -0.294958f, -0.264390f, 0.281971f, 0.270695f, -0.237171f, -0.265112f, 0.030326f, -0.280339f, 0.205494f, -0.189602f, -0.249762f, -0.030587f, -0.232876f, -0.266568f, 0.283297f, 0.184219f, -0.326173f, -0.300913f, 0.291150f, 0.244222f, -0.028311f, 0.269712f, -0.030542f, 0.137105f, 0.015314f, 0.082181f, -0.252865f, -0.293426f, -0.041276f, -0.208188f, -0.273799f, 0.192751f, 0.161448f, -0.259797f, -0.312678f, 0.010947f, -0.219860f, 0.304013f, 0.215737f, -0.084195f, 0.021374f, -0.033648f, -0.135345f, -0.023195f, 0.067501f, -0.049193f, -0.003499f, 0.315316f, 0.283519f, 0.209145f, -0.126200f, 0.294156f, 0.209545f, -0.067520f, -0.220464f, 0.197655f, 0.189701f, -0.220464f, -0.189622f, 0.275114f, -0.189395f, 0.180553f, -0.131060f, -0.286682f, -0.339512f, 0.069019f, 0.229308f, -0.070299f, 0.135782f, 0.157158f, -0.253741f, -0.191105f, 0.173641f, -0.120685f, -0.254793f, 0.182793f, -0.006790f, -0.006088f, -0.062122f, 0.271711f, -0.276954f, 0.247890f, 0.005536f, -0.134470f, 0.097275f, -0.201379f, 0.046819f, -0.064982f, -0.014275f, 0.064193f, -0.170693f, 0.299656f, 0.277375f, -0.238060f, 0.171250f, -0.120381f, 0.029047f, -0.186852f, 0.284615f, -0.042056f, -0.263664f, 0.026803f, -0.297007f, -0.239510f, 0.239004f, 0.193162f, 0.284892f, -0.229667f, 0.118599f, -0.005667f, 0.037192f, 0.307600f, 0.016632f, -0.125630f, 0.194380f, -0.281582f, -0.042598f, -0.070871f, -0.185514f, 0.106907f, -0.176378f, 0.063831f, 0.356891f, 0.256650f, -0.262580f, 0.153026f, -0.251447f, 0.286839f, 0.011173f, 0.004900f, -0.066917f, 0.000018f, 0.027420f, -0.080142f, -0.178416f, -0.018929f, 0.176098f, -0.165531f, 0.049292f, 0.223130f, -0.289993f, -0.149300f, -0.166235f, -0.050820f, 0.046532f, -0.107200f, 0.047271f, 0.135035f, -0.167345f, 0.137344f, -0.166671f, 0.123723f, -0.077750f, 0.220998f, -0.236481f, -0.292599f, -0.138030f, -0.239143f, -0.305827f, -0.256875f, 0.192892f, -0.212323f, -0.119822f, -0.283704f, 0.330355f, -0.118450f, -0.261027f, 0.127793f, 0.121828f, 0.049726f, -0.138749f, -0.173656f, 0.244673f, 0.308448f, -0.209188f, -0.243802f, 0.209863f, -0.321124f, 0.110175f, 0.096882f, 0.026378f, 0.000515f, 0.321177f, -0.106921f, -0.310867f, -0.252342f, -0.329877f, -0.122706f, 0.030774f, 0.205500f, 0.041451f, -0.093785f, 0.312701f, 0.199620f, 0.329335f, -0.059512f, 0.228806f, 0.259849f, -0.311220f, -0.016863f, -0.326810f, 0.153920f, -0.263175f, 0.321377f, 0.165271f, -0.175376f, 0.127813f, -0.270882f, 0.219225f, -0.292956f, 0.018213f, -0.140613f, 0.058810f, -0.003139f, 0.121651f, 0.260701f, -0.169860f, -0.168626f, -0.284884f, 0.096198f, -0.010009f, 0.098893f, 0.223672f, 0.010666f, -0.179118f, 0.097670f, 0.049175f, -0.049236f, 0.218334f, -0.231025f, 0.114571f, -0.243991f, -0.329210f, 0.225296f, -0.123954f, -0.115875f, -0.294982f, 0.181002f, -0.209115f, 0.067705f, -0.237956f, -0.249304f, -0.072158f, -0.084363f, 0.314285f, -0.298508f, -0.107115f, -0.231894f, -0.061876f, -0.189171f, 0.129011f, -0.021144f, -0.146854f, 0.158245f, 0.090573f, -0.017834f, -0.210838f, -0.058644f, 0.268967f, 0.118865f, 0.219799f, 0.130966f, 0.020674f, -0.122429f, -0.283712f, 0.052193f, 0.174210f, 0.297606f, 0.138339f, -0.262538f, -0.241852f, -0.017697f, -0.238165f, -0.071805f, 0.226741f, -0.130724f, 0.045286f, 0.201376f, -0.008035f, -0.279011f, 0.276985f, -0.116032f, 0.308795f, -0.213198f, -0.189306f, 0.023331f, 0.308927f, -0.215270f, -0.084172f, 0.311457f, -0.301250f, 0.155973f, -0.181591f, -0.186249f, 0.117867f, -0.209933f, 0.152536f, 0.157149f, 0.058706f, -0.033722f, -0.415050f, -0.156345f, 0.183208f, -0.279466f, -0.097607f, -0.155557f, 0.215790f, -0.139135f, -0.223304f, 0.049855f, -0.044727f, -0.293792f, -0.279114f, -0.064968f, -0.139308f, -0.032777f, -0.138871f, -0.091093f, 0.167109f, -0.199605f, 0.154138f, -0.046744f, 0.195028f, -0.057553f, 0.076214f, -0.310618f, 0.095315f, -0.189108f, -0.202122f, -0.342485f, -0.130905f, -0.117749f, -0.049230f, 0.213741f, -0.059955f, 0.015072f, 0.123729f, -0.143238f, 0.182378f, 0.006974f, -0.093432f, -0.044244f, 0.018017f, 0.149729f, 0.042428f, 0.120906f, -0.123064f, -0.219296f, -0.196965f, -0.046293f, 0.065269f, -0.070218f, -0.169035f, 0.063646f, 0.033374f, 0.235012f, 0.232578f, 0.043216f, -0.027653f, 0.085312f, 0.149825f, 0.301792f, -0.235828f, 0.301235f, -0.060600f, 0.272335f, -0.282008f, -0.218409f, -0.275090f, 0.261329f, -0.013771f, 0.219422f, -0.206902f, 0.076530f, -0.113563f, -0.031711f, 0.324611f, 0.202527f, -0.278032f, 0.232908f, -0.125164f, 0.112441f, -0.112693f, 0.282934f, 0.170495f, 0.244332f };
static const float weather_forecast_layer_7_biases[30] = { -0.009613f, -0.065268f, -0.100897f, -0.032089f, -0.027238f, -0.035704f, -0.039828f, -0.008380f, 0.018549f, 0.031166f, -0.022672f, -0.047748f, 0.003649f, -0.020995f, 0.001767f, 0.016694f, -0.066698f, -0.104457f, 0.016617f, -0.010764f, -0.042050f, 0.006027f, -0.089093f, -0.008989f, -0.000848f, -0.047591f, -0.106970f, -0.003641f, -0.026648f, -0.075922f };
static const float weather_forecast_layer_7_weights[900] = { 0.300219f, -0.319634f, -0.287846f, 0.212446f, 0.074512f, -0.136601f, 0.085117f, 0.035612f, 0.148316f, 0.269372f, 0.230168f, 0.177977f, -0.184149f, 0.109818f, -0.185941f, -0.110544f, -0.104847f, 0.119871f, -0.212126f, 0.263028f, 0.017752f, 0.269925f, -0.253515f, -0.079528f, 0.101412f, 0.039213f, 0.126032f, -0.302250f, 0.104931f, -0.287815f, 0.185352f, 0.315201f, 0.181704f, -0.044879f, -0.088142f, 0.214060f, -0.240920f, -0.275068f, 0.252632f, 0.008499f, -0.158364f, 0.033028f, 0.157731f, 0.110437f, -0.125508f, -0.090129f, 0.192231f, 0.134503f, 0.148758f, 0.233442f, -0.109906f, -0.000002f, 0.008980f, -0.238055f, -0.093132f, -0.301394f, 0.550877f, 0.233665f, 0.062930f, -0.140150f, 0.174313f, -0.089528f, -0.167910f, -0.258875f, -0.175145f, 0.061940f, -0.010407f, 0.099688f, -0.141583f, 0.156558f, 0.097175f, -0.331279f, -0.273302f, 0.125728f, 0.151669f, 0.130355f, -0.151245f, 0.098693f, 0.315881f, 0.234386f, -0.319122f, -0.046803f, -0.051404f, -0.251190f, 0.284617f, 0.186361f, 0.099310f, -0.034841f, -0.111425f, 0.148559f, -0.095123f, 0.193317f, -0.232950f, 0.169498f, -0.148773f, 0.198921f, -0.332739f, -0.046267f, -0.129097f, 0.053273f, -0.019166f, 0.280688f, -0.031676f, 0.051355f, -0.161539f, -0.136211f, -0.135957f, 0.097485f, -0.170984f, -0.053056f, 0.276880f, 0.238536f, 0.268113f, 0.274140f, -0.094205f, -0.181436f, -0.225568f, -0.243747f, -0.356543f, -0.017619f, 0.087894f, -0.133667f, -0.015477f, 0.198633f, -0.246447f, 0.183162f, 0.224012f, -0.133399f, -0.250933f, 0.042476f, -0.100544f, -0.008343f, 0.247782f, 0.285926f, -0.008518f, 0.052253f, -0.247226f, -0.033807f, -0.168169f, 0.234342f, -0.275655f, 0.257021f, -0.072521f, -0.236271f, 0.249786f, -0.233400f, -0.081080f, 0.188496f, -0.317496f, 0.056771f, -0.079687f, 0.212717f, -0.061518f, 0.120361f, 0.166203f, -0.276187f, 0.125565f, -0.012871f, -0.050714f, 0.274250f, 0.179556f, -0.184058f, -0.202513f, -0.261731f, 0.156811f, 0.252084f, -0.245474f, -0.109208f, 0.081098f, 0.143042f, 0.071836f, -0.204798f, -0.144733f, -0.221879f, -0.279453f, -0.105753f, 0.007218f, -0.079976f, 0.184466f, -0.290786f, 0.256053f, -0.005666f, -0.152080f, -0.041094f, -0.154573f, -0.091759f, -0.330717f, -0.229687f, -0.315622f, 0.191387f, 0.296975f, 0.250237f, -0.020839f, -0.050118f, -0.258841f, 0.082776f, -0.225950f, 0.151661f, 0.186463f, 0.038846f, 0.005821f, -0.201670f, 0.156667f, -0.260113f, 0.232871f, -0.241956f, -0.108247f, 0.179856f, 0.254299f, 0.006310f, -0.203332f, 0.062343f, -0.073586f, -0.069702f, 0.059742f, -0.138868f, 0.175543f, 0.043343f, -0.313141f, -0.131531f, 0.234995f, -0.243758f, -0.195123f, 0.177587f, -0.317740f, -0.136256f, 0.229994f, 0.206132f, 0.170287f, 0.178581f, 0.023221f, -0.245818f, -0.288089f, 0.116134f, 0.174096f, -0.248606f, -0.256605f, 0.054265f, -0.180391f, -0.199587f, 0.032322f, -0.286686f, 0.091673f, 0.062016f, 0.187447f, 0.048754f, 0.216073f, 0.280856f, -0.156888f, -0.091185f, 0.033502f, 0.089035f, 0.122974f, 0.074401f, 0.317675f, 0.123829f, -0.029745f, -0.277311f, 0.005441f, -0.099418f, 0.249915f, 0.025986f, -0.161338f, -0.128165f, 0.152405f, -0.227275f, 0.135422f, 0.071340f, -0.313570f, -0.244475f, -0.380746f, 0.217564f, -0.107805f, -0.210267f, -0.230936f, -0.201713f, 0.036559f, 0.033084f, 0.253970f, 0.226024f, -0.117090f, -0.121963f, -0.100330f, -0.042213f, 0.221019f, 0.179280f, 0.098768f, -0.282796f, 0.202864f, 0.226105f, -0.137435f, 0.036927f, -0.364460f, -0.104195f, -0.043251f, 0.068952f, 0.019971f, -0.017753f, -0.157871f, 0.131847f, -0.116181f, -0.144496f, 0.137093f, 0.015881f, 0.156763f, 0.211556f, -0.173849f, 0.205690f, -0.224965f, 0.099296f, -0.163245f, 0.048381f, -0.151583f, 0.019999f, 0.228107f, 0.119465f, -0.063902f, 0.097616f, 0.137960f, 0.219318f, -0.279595f, -0.084669f, -0.269305f, 0.122325f, -0.184395f, 0.143736f, 0.308192f, -0.257343f, -0.253605f, -0.135804f, -0.005879f, -0.063467f, -0.301128f, 0.251246f, -0.006237f, 0.002557f, 0.210376f, -0.081300f, 0.019606f, 0.302965f, -0.093936f, -0.041794f, 0.189032f, 0.266741f, 0.297198f, 0.240359f, -0.284681f, 0.030882f, 0.065971f, 0.172624f, 0.059090f, 0.153764f, 0.044826f, 0.122246f, -0.127196f, 0.107134f, -0.006100f, 0.249450f, -0.145516f, -0.040535f, -0.035074f, 0.036736f, 0.008470f, -0.199689f, 0.094947f, -0.267326f, 0.029379f, 0.179144f, 0.221377f, 0.019071f, 0.103841f, 0.157689f, 0.085785f, 0.041263f, -0.215588f, 0.287902f, -0.061745f, -0.035069f, 0.135840f, -0.114089f, 0.186924f, -0.103385f, -0.011143f, 0.098776f, 0.080138f, -0.266205f, 0.090492f, -0.146341f, 0.065592f, 0.189254f, 0.099695f, 0.084223f, -0.271449f, -0.246022f, -0.161757f, -0.051013f, 0.169154f, -0.173039f, 0.159130f, 0.023358f, 0.026807f, 0.279156f, 0.188665f, 0.103476f, 0.020598f, -0.135047f, 0.074579f, -0.283838f, 0.235315f, -0.090597f, 0.087885f, 0.226625f, -0.074186f, 0.231349f, -0.308942f, 0.100465f, -0.285060f, -0.294575f, 0.079880f, -0.108052f, -0.206582f, 0.015591f, -0.279417f, -0.088926f, 0.210209f, 0.166316f, 0.129709f, 0.220388f, -0.267578f, 0.238320f, 0.007472f, -0.250781f, 0.096419f, 0.285615f, -0.074263f, 0.302722f, -0.238910f, -0.096087f, 0.128540f, 0.034312f, 0.077262f, -0.214083f, 0.048548f, 0.125205f, 0.143536f, 0.032942f, -0.017745f, -0.186411f, 0.100573f, 0.051225f, 0.116605f, 0.183444f, -0.264013f, 0.168161f, 0.006762f, 0.246588f, -0.149097f, 0.212222f, 0.117851f, 0.094925f, 0.030697f, -0.279857f, 0.042569f, 0.030390f, 0.295288f, -0.118319f, -0.116157f, -0.092078f, 0.200453f, -0.291116f, 0.067898f, -0.173206f, 0.146948f, -0.258215f, 0.019549f, 0.179392f, 0.404518f, -0.249165f, -0.026083f, -0.209221f, -0.102869f, -0.231924f, -0.084732f, -0.011062f, 0.257343f, -0.164373f, 0.206176f, 0.013514f, -0.178804f, 0.297584f, -0.253476f, 0.034488f, -0.177104f, -0.216658f, -0.027624f, 0.164941f, 0.294737f, 0.072938f, -0.100016f, 0.194128f, -0.294582f, 0.032952f, -0.108867f, -0.272104f, 0.241406f, 0.190916f, 0.000747f, 0.247168f, -0.010006f, 0.086879f, -0.093749f, -0.109729f, -0.079084f, -0.262762f, 0.031647f, -0.000614f, 0.139618f, 0.222634f, 0.015807f, 0.244318f, -0.038202f, -0.297911f, -0.147593f, 0.052292f, 0.193109f, 0.039396f, -0.257124f, 0.156487f, -0.303772f, -0.182077f, -0.191501f, -0.135084f, 0.276064f, -0.197506f, 0.058321f, 0.048644f, -0.021715f, 0.253128f, 0.333124f, -0.032554f, -0.175048f, 0.176816f, -0.344867f, 0.022569f, -0.023730f, 0.026228f, -0.246720f, 0.268825f, 0.172284f, -0.264794f, -0.119272f, -0.304476f, -0.209959f, 0.234425f, -0.229802f, 0.072739f, -0.304236f, -0.356052f, 0.316274f, 0.301647f, 0.124047f, 0.295061f, -0.326159f, -0.126558f, 0.063186f, 0.134506f, -0.250733f, -0.262351f, 0.075858f, 0.238951f, 0.314694f, -0.179203f, 0.145625f, -0.153918f, 0.034644f, 0.103019f, 0.151708f, -0.264163f, 0.172228f, 0.052804f, 0.045220f, -0.225016f, -0.021176f, -0.172230f, 0.144169f, 0.325911f, 0.030930f, -0.206748f, 0.049889f, -0.023798f, 0.063902f, -0.247578f, -0.127147f, 0.213743f, 0.152457f, 0.000270f, -0.311614f, 0.105513f, -0.195260f, -0.224125f, -0.246469f, -0.167246f, 0.130117f, 0.180949f, -0.084804f, -0.058317f, 0.029103f, 0.187492f, 0.099453f, 0.030944f, 0.084224f, -0.330236f, 0.067303f, -0.275016f, 0.159846f, -0.288074f, -0.000433f, -0.311262f, -0.162676f, 0.049619f, -0.069479f, -0.277000f, 0.025745f, -0.249145f, 0.275317f, -0.061479f, -0.318226f, -0.209992f, -0.036156f, -0.214702f, -0.077449f, 0.196204f, -0.278357f, -0.316288f, -0.109516f, -0.102843f, 0.195682f, 0.135342f, -0.339533f, -0.187179f, -0.233117f, -0.297082f, -0.072563f, -0.045734f, 0.160314f, 0.009655f, -0.136785f, -0.107998f, -0.036039f, 0.080864f, -0.236190f, -0.105468f, -0.263653f, -0.133758f, -0.224926f, -0.248501f, 0.346595f, 0.209709f, 0.319973f, -0.007322f, 0.034731f, 0.187053f, -0.317014f, 0.175854f, -0.298320f, -0.077786f, -0.165187f, 0.151534f, 0.118761f, -0.262601f, 0.045834f, -0.338289f, -0.125597f, -0.113335f, 0.179857f, -0.285124f, 0.159131f, -0.282628f, -0.334042f, -0.267790f, -0.028861f, -0.079675f, 0.074051f, -0.208454f, -0.070984f, -0.116305f, 0.217017f, 0.207062f, 0.209690f, 0.077178f, -0.137260f, -0.022260f, -0.022623f, 0.119404f, 0.078846f, -0.181906f, 0.268176f, 0.055319f, 0.296002f, 0.021708f, 0.041574f, -0.304288f, 0.089397f, -0.016419f, 0.019048f, -0.122237f, -0.309212f, 0.132110f, -0.255833f, 0.283513f, -0.210358f, 0.126205f, -0.262711f, 0.118317f, 0.054646f, -0.190115f, 0.117683f, 0.202458f, -0.126379f, 0.182179f, -0.307970f, -0.095022f, -0.022901f, -0.146537f, -0.229651f, -0.175311f, 0.154374f, 0.219863f, -0.007700f, -0.272021f, -0.246614f, 0.221556f, 0.041862f, 0.052658f, -0.022080f, 0.133619f, -0.351772f, 0.124687f, 0.011992f, -0.186450f, -0.346249f, -0.127152f, 0.084038f, -0.251626f, 0.091640f, 0.220803f, -0.187078f, 0.235625f, 0.122471f, 0.039432f, 0.232077f, -0.254174f, -0.190593f, -0.064234f, -0.015282f, -0.248701f, 0.218751f, 0.079713f, -0.185795f, -0.261525f, 0.022813f, 0.129301f, 0.172189f, -0.036867f, -0.034608f, -0.001430f, 0.130760f, -0.172911f, -0.109073f, -0.241866f, -0.182511f, 0.246175f, 0.105883f, 0.196620f, -0.225275f, 0.093435f, -0.048173f, 0.074253f, -0.216196f, -0.032983f, -0.243385f, -0.074771f, 0.116041f, 0.169727f, 0.180466f, -0.078168f, 0.028432f, -0.275803f, -0.186673f, -0.171743f, -0.305423f, 0.012123f, 0.074302f, 0.065024f, -0.066836f, -0.065412f, 0.162264f, 0.206320f, 0.014975f, -0.147685f, -0.147530f, 0.288753f, -0.340712f, -0.088009f, -0.144775f, 0.250898f, 0.320639f, -0.020050f, -0.117917f, -0.050376f, 0.085523f, 0.048774f, -0.314357f, -0.248033f, 0.046234f, 0.249647f, -0.006072f, 0.171040f, -0.180322f, -0.001773f, -0.098988f, 0.038976f, 0.058178f, -0.130497f, 0.167026f, -0.131310f, 0.121879f, 0.112524f, 0.276783f, 0.149260f, -0.145598f, -0.182874f, 0.171482f, 0.008562f, 0.306434f, 0.303137f, -0.001513f, 0.009893f, 0.277885f, 0.055487f, -0.123561f, -0.150271f, 0.125952f, -0.051156f, 0.148012f, -0.225022f, -0.117756f, 0.022846f, -0.001202f, 0.143236f, -0.117072f, 0.101823f, 0.076441f, 0.052270f, 0.066494f, 0.232349f, -0.289569f, 0.072576f, 0.194807f, -0.143165f, 0.047508f, 0.040670f, -0.212191f, 0.146659f, 0.059256f, -0.181189f, 0.118300f, 0.228953f, 0.077789f, 0.073796f, -0.047085f, -0.229383f, 0.152536f, -0.367530f, -0.229595f, 0.171183f, -0.263945f, -0.353903f, 0.119275f, -0.150722f, -0.047519f, -0.028393f, -0.074759f, 0.111714f, 0.258479f, -0.037334f, -0.241212f, -0.003237f, 0.028381f, 0.008176f, 0.239358f, -0.198137f, -0.009000f, -0.237581f, 0.101031f, 0.121327f, 0.030172f, 0.287133f, 0.044689f, 0.053399f };
static const float weather_forecast_layer_8_biases[30] = { -0.050250f, -0.011446f, 0.039469f, -0.029254f, -0.010079f, -0.001779f, -0.019396f, 0.012666f, -0.082515f, -0.073685f, -0.026228f, 0.029454f, -0.031365f, -0.037043f, -0.020265f, -0.025477f, -0.025629f, 0.003623f, -0.003459f, -0.021100f, -0.003903f, -0.034045f, 0.003254f, -0.081134f, -0.018944f, -0.043735f, -0.025528f, -0.005402f, 0.011975f, -0.035895f };
static const float weather_forecast_layer_8_weights[900] = { -0.159859f, 0.009212f, 0.211807f, 0.094228f, -0.003961f, 0.241213f, -0.122591f, -0.022695f, -0.301046f, -0.057680f, 0.211011f, -0.035711f, -0.251877f, -0.028863f, 0.228730f, -0.344391f, -0.148162f, 0.173094f, 0.072130f, 0.002734f, -0.107324f, -0.313196f, -0.280672f, 0.128789f, -0.084545f, -0.257595f, -0.012611f, -0.274856f, -0.278015f, -0.307212f, -0.203442f, 0.025548f, -0.172533f, 0.336314f, -0.011459f, -0.009865f, -0.200761f, -0.076205f, -0.086957f, -0.203045f, 0.270699f, -0.071085f, -0.054191f, -0.012507f, -0.022648f, 0.092167f, -0.062311f, -0.093425f, 0.007907f, -0.007025f, 0.276957f, 0.196226f, 0.367900f, 0.044924f, -0.175600f, -0.183557f, -0.093335f, 0.120167f, -0.101954f, -0.180323f, 0.071731f, 0.065677f, 0.224130f, -0.264721f, 0.193711f, 0.060645f, 0.082467f, -0.222315f, -0.025961f, -0.231012f, -0.044524f, -0.057827f, 0.307311f, -0.319964f, -0.213723f, -0.012084f, 0.143525f, -0.041583f, 0.106597f, -0.290713f, 0.124551f, 0.239192f, 0.206019f, 0.278925f, -0.015466f, -0.076958f, 0.294007f, 0.156108f, -0.272514f, 0.155358f, 0.287424f, -0.309674f, 0.221592f, -0.085196f, 0.304408f, 0.192416f, 0.208216f, -0.273977f, 0.167145f, 0.272796f, 0.068414f, -0.156981f, -0.097155f, -0.211280f, -0.331111f, 0.079045f, 0.134139f, 0.215139f, 0.195381f, 0.243638f, 0.081139f, -0.040574f, 0.280217f, -0.304713f, 0.019413f, -0.168827f, 0.295446f, -0.042578f, -0.113219f, 0.073499f, 0.051105f, 0.106102f, 0.000431f, -0.199928f, 0.154428f, -0.202837f, 0.150428f, -0.060036f, -0.098917f, 0.203933f, 0.153408f, 0.099498f, -0.263537f, 0.275706f, 0.307040f, 0.227843f, 0.112050f, -0.148420f, -0.084421f, 0.080215f, -0.185189f, 0.112510f, -0.160181f, -0.078833f, -0.088861f, 0.068134f, 0.035150f, 0.044053f, -0.278054f, 0.119155f, -0.046390f, 0.048398f, -0.298829f, -0.200166f, -0.254937f, 0.112988f, -0.115044f, -0.038748f, -0.312452f, -0.338328f, 0.208894f, -0.001020f, 0.158185f, 0.111765f, -0.049604f, 0.132494f, -0.043137f, -0.170059f, 0.290036f, 0.241128f, 0.309117f, -0.078072f, 0.266394f, -0.185042f, -0.112875f, -0.150260f, -0.037634f, -0.027204f, 0.167896f, -0.006408f, -0.327024f, -0.204333f, -0.174356f, 0.164672f, -0.127538f, -0.208473f, -0.156071f, 0.043544f, 0.151099f, -0.121406f, 0.052303f, -0.310340f, -0.099016f, -0.301847f, 0.251229f, 0.246106f, -0.210180f, -0.053710f, -0.252896f, 0.246741f, 0.197083f, 0.309632f, 0.199238f, -0.269599f, 0.212935f, -0.348816f, 0.234098f, 0.045818f, -0.142678f, 0.030037f, -0.140349f, -0.296288f, 0.069479f, 0.164369f, 0.225298f, 0.138716f, 0.246049f, -0.125088f, -0.019110f, 0.172256f, -0.325779f, 0.083566f, -0.262210f, -0.296711f, -0.277963f, 0.019836f, 0.244114f, 0.034498f, -0.158452f, -0.049281f, -0.057281f, 0.120600f, -0.045645f, -0.026206f, -0.179689f, -0.299886f, 0.151810f, -0.063281f, 0.104447f, -0.223559f, 0.203465f, 0.242681f, 0.324338f, -0.183207f, -0.020017f, 0.157734f, -0.233866f, -0.277992f, 0.153118f, 0.027502f, -0.052668f, 0.128315f, -0.190007f, 0.122739f, -0.255851f, 0.302733f, 0.067611f, 0.118915f, 0.151884f, -0.074657f, -0.355548f, 0.168813f, 0.308113f, 0.010111f, 0.070357f, 0.149158f, 0.266726f, -0.072419f, 0.178465f, 0.146751f, -0.019326f, 0.121454f, -0.184353f, -0.154872f, -0.138046f, 0.111126f, 0.040304f, -0.197734f, 0.125048f, 0.261095f, 0.052897f, 0.053859f, -0.074747f, 0.110813f, -0.225296f, -0.256617f, 0.230068f, -0.046597f, -0.172610f, -0.198023f, -0.011598f, -0.105273f, -0.045251f, 0.034490f, 0.070513f, -0.130135f, -0.186071f, -0.305982f, -0.061365f, 0.144962f, 0.181203f, 0.320335f, -0.309761f, -0.086635f, -0.154128f, 0.002159f, -0.142379f, -0.299624f, 0.286663f, 0.233473f, -0.133503f, 0.038997f, -0.070453f, 0.218481f, 0.213511f, 0.235159f, -0.323489f, 0.293706f, 0.184293f, 0.131615f, -0.074240f, 0.091122f, 0.317328f, 0.226057f, -0.061827f, -0.283799f, 0.071262f, -0.167675f, 0.310956f, 0.061989f, 0.310171f, 0.037262f, 0.175452f, 0.235293f, -0.235285f, 0.177425f, 0.256952f, 0.096097f, -0.120865f, -0.072777f, 0.124291f, -0.123525f, -0.117484f, -0.126307f, -0.232114f, -0.043022f, -0.019435f, -0.259362f, 0.114406f, -0.024831f, -0.110271f, -0.134520f, 0.090330f, 0.301541f, 0.015927f, -0.084305f, -0.254589f, -0.195405f, 0.103730f, 0.088338f, 0.084237f, 0.156861f, 0.260150f, 0.094751f, -0.236464f, -0.238711f, 0.198366f, 0.300720f, 0.056316f, -0.296324f, 0.211298f, 0.113242f, 0.072772f, -0.067198f, 0.057017f, 0.223505f, 0.265239f, 0.050763f, -0.018711f, -0.075584f, -0.164755f, -0.004959f, -0.093860f, -0.324924f, -0.053205f, -0.246059f, 0.279920f, 0.266862f, -0.274578f, -0.189126f, -0.144852f, 0.202737f, 0.108497f, 0.218741f, -0.083598f, 0.077275f, -0.211653f, -0.325031f, -0.259206f, -0.354222f, -0.298404f, 0.302191f, -0.057141f, -0.006310f, 0.024062f, -0.130391f, -0.186612f, 0.216839f, 0.100376f, 0.222015f, -0.227474f, 0.081515f, 0.003261f, 0.003359f, -0.021266f, -0.068139f, 0.249193f, -0.274236f, -0.289006f, -0.238729f, -0.102725f, -0.311777f, -0.279720f, -0.083026f, -0.302796f, 0.023747f, -0.201459f, -0.038450f, 0.179896f, -0.166583f, -0.038264f, -0.009014f, -0.053824f, 0.111238f, 0.135697f, -0.069551f, -0.044829f, -0.207748f, -0.055637f, -0.218241f, -0.053157f, 0.107194f, 0.105665f, 0.170427f, 0.186150f, -0.248569f, 0.150858f, -0.223837f, 0.019738f, -0.196409f, 0.148943f, 0.045096f, -0.069975f, 0.057271f, 0.300468f, 0.076249f, -0.232486f, 0.085032f, -0.317805f, 0.184179f, -0.064057f, 0.065935f, 0.051670f, -0.253731f, -0.297800f, 0.031898f, -0.007998f, 0.049705f, 0.113783f, -0.136035f, -0.282410f, -0.217086f, 0.295676f, 0.074653f, -0.177017f, 0.064850f, 0.019757f, 0.286477f, 0.206061f, -0.074301f, -0.132298f, 0.023415f, -0.297947f, 0.250051f, -0.261016f, 0.351849f, 0.042124f, -0.250980f, -0.024088f, 0.287997f, -0.201675f, 0.215257f, -0.216086f, 0.082224f, 0.007438f, -0.284210f, 0.280125f, -0.023030f, 0.033108f, -0.099711f, 0.278812f, 0.104285f, 0.223545f, 0.024744f, 0.053234f, 0.225426f, 0.008217f, -0.246927f, 0.192845f, -0.139673f, 0.054450f, 0.165258f, 0.243780f, -0.186055f, 0.095935f, -0.272421f, 0.095110f, 0.094106f, 0.124736f, 0.070439f, -0.230301f, 0.174382f, 0.232559f, 0.231915f, 0.210900f, 0.093773f, -0.060164f, -0.128725f, 0.084267f, -0.226324f, 0.214194f, -0.223772f, 0.187653f, -0.213233f, 0.250217f, -0.308472f, -0.157853f, -0.106061f, -0.167014f, 0.058586f, 0.002221f, 0.327649f, 0.200715f, 0.124630f, -0.226419f, -0.203944f, 0.295889f, 0.157483f, 0.130173f, 0.071144f, 0.096266f, -0.003404f, -0.175826f, 0.311215f, 0.228373f, -0.192301f, -0.349597f, 0.317564f, -0.102742f, 0.189500f, 0.288721f, -0.147172f, -0.125366f, -0.094618f, -0.284285f, 0.106095f, -0.046638f, 0.062338f, 0.206780f, 0.133896f, -0.059981f, -0.158679f, -0.063058f, 0.290685f, 0.038999f, 0.087280f, 0.239276f, -0.179030f, -0.040639f, 0.124161f, 0.112009f, 0.154436f, 0.085164f, 0.179876f, -0.186518f, 0.242877f, 0.102324f, 0.273758f, -0.252506f, -0.229316f, 0.240521f, 0.164753f, 0.254649f, -0.041760f, 0.053253f, 0.029103f, -0.059640f, -0.271533f, 0.056403f, -0.273422f, -0.161971f, 0.161188f, -0.052057f, 0.008693f, -0.282712f, -0.005053f, -0.162399f, -0.022659f, -0.152110f, 0.145861f, -0.141808f, 0.100092f, 0.057943f, -0.369305f, -0.110495f, 0.053214f, 0.065437f, 0.151998f, -0.271635f, -0.164694f, -0.217965f, 0.160411f, 0.128825f, -0.187784f, 0.121447f, 0.157217f, -0.133725f, 0.127899f, 0.214354f, 0.206311f, 0.263842f, -0.329041f, 0.179979f, 0.151719f, 0.227565f, 0.011717f, -0.240239f, -0.254587f, 0.138917f, -0.333470f, -0.065596f, 0.202652f, -0.236497f, 0.285625f, -0.148195f, -0.261011f, -0.114938f, 0.298245f, -0.310753f, -0.112167f, 0.013495f, -0.216206f, 0.211041f, 0.047245f, 0.226552f, 0.063023f, 0.165218f, -0.003551f, 0.225554f, -0.254904f, -0.162868f, -0.066263f, 0.052197f, -0.015640f, -0.128567f, -0.004428f, -0.268850f, 0.067434f, -0.310351f, 0.043026f, -0.312589f, 0.153894f, 0.204210f, -0.089009f, 0.015416f, 0.265611f, -0.272662f, -0.142842f, -0.052686f, 0.257989f, 0.047776f, -0.309532f, -0.101654f, 0.215281f, 0.048040f, 0.180530f, -0.180459f, -0.210893f, 0.195871f, -0.254017f, 0.084797f, -0.196589f, 0.018075f, -0.125279f, 0.005807f, -0.298941f, -0.261098f, -0.132470f, 0.314652f, -0.172956f, -0.081886f, 0.107874f, 0.015858f, -0.094051f, 0.268552f, -0.097920f, -0.028228f, -0.149812f, -0.024813f, -0.073123f, -0.118547f, -0.308910f, -0.076031f, -0.050208f, -0.190144f, 0.282193f, -0.108192f, -0.136650f, 0.070329f, -0.153318f, 0.153597f, -0.295371f, -0.072274f, 0.076483f, 0.199231f, 0.067671f, -0.238653f, 0.057659f, -0.317488f, -0.384432f, -0.278670f, -0.192211f, 0.006008f, -0.024884f, -0.194579f, -0.102254f, -0.023025f, 0.168553f, 0.024277f, -0.177347f, 0.188068f, -0.298072f, 0.081762f, -0.308054f, 0.100313f, 0.072572f, -0.305775f, 0.085977f, 0.003374f, 0.195050f, 0.063136f, -0.163485f, -0.164485f, 0.145787f, 0.071586f, -0.095635f, 0.261373f, 0.212455f, -0.005780f, -0.206782f, 0.106443f, 0.251535f, -0.305894f, 0.033064f, -0.158961f, -0.065198f, 0.228026f, 0.139933f, -0.179913f, 0.145560f, 0.148546f, 0.279766f, 0.139459f, -0.099945f, -0.111392f, -0.151898f, 0.036133f, -0.059672f, -0.156930f, 0.030483f, 0.087789f, -0.048093f, -0.119745f, -0.009413f, -0.132525f, -0.333669f, 0.052503f, 0.306299f, -0.307811f, -0.269385f, -0.018859f, -0.165488f, 0.007554f, -0.008254f, 0.047607f, -0.008686f, -0.272465f, 0.123405f, -0.253388f, 0.049234f, 0.003858f, 0.333156f, -0.324280f, -0.093294f, -0.223799f, -0.267914f, 0.042394f, -0.143687f, 0.124361f, -0.306867f, 0.192277f, 0.026785f, -0.174998f, -0.259644f, 0.058090f, -0.174491f, 0.008735f, -0.212670f, -0.191817f, -0.141837f, -0.061483f, -0.131415f, -0.062737f, 0.224807f, -0.064966f, -0.210088f, -0.190897f, -0.191369f, -0.078099f, -0.146121f, -0.120827f, -0.199051f, -0.025149f, -0.022802f, -0.070701f, 0.258668f, 0.093874f, 0.145055f, -0.311353f, 0.011799f, -0.215681f, 0.143684f, -0.155435f, 0.033841f, 0.338916f, -0.001958f, 0.221305f, -0.028337f, 0.143416f, 0.166396f, -0.011302f, -0.052235f, 0.269940f, 0.053113f, 0.251831f, -0.135808f, 0.193652f, 0.051101f, -0.312958f, -0.193767f, 0.241098f, 0.001490f, 0.286896f, 0.108839f, -0.222004f, 0.054180f, -0.056696f, 0.077634f, 0.147717f, 0.024719f, -0.197825f, 0.278883f, -0.007934f, 0.103364f, -0.209757f, 0.055585f, -0.144382f, -0.006938f, 0.194206f, 0.105918f, -0.168965f, -0.184410f, -0.124920f, -0.167177f, -0.152707f, 0.007190f, 0.238087f, 0.159842f, 0.097150f, 0.064909f, -0.065774f, 0.038363f, 0.101551f, -0.261481f, 0.043048f, -0.297941f, 0.288966f, -0.131791f, 0.119357f, 0.247552f };
static const float weather_forecast_layer_9_biases[30] = { -0.044125f, 0.000000f, 0.000013f, 0.023722f, -0.044061f, -0.006729f, 0.002337f, -0.044716f, 0.064320f, -0.086906f, 0.043591f, 0.011889f, -0.053687f, -0.008593f, 0.004026f, -0.065809f, -0.077820f, -0.031431f, -0.052886f, 0.002224f, -0.004567f, -0.053255f, -0.065414f, 0.005978f, -0.023959f, -0.015508f, 0.010735f, 0.029322f, 0.003954f, 0.022657f };
static const float weather_forecast_layer_9_weights[900] = { 0.202495f, -0.051799f, -0.203171f, 0.119658f, -0.009076f, -0.312562f, -0.140470f, -0.028954f, 0.159954f, 0.249577f, 0.292776f, 0.261562f, -0.308591f, 0.237836f, 0.019751f, 0.172138f, -0.154719f, -0.224500f, 0.104540f, 0.065314f, 0.064134f, -0.095231f, -0.001857f, 0.127868f, -0.120762f, 0.132386f, -0.107880f, -0.024195f, -0.083503f, -0.030300f, -0.262424f, 0.285652f, -0.055183f, 0.166431f, 0.026147f, -0.229091f, -0.044168f, -0.002291f, -0.259868f, -0.238767f, 0.272270f, -0.189269f, -0.031223f, -0.273642f, 0.081549f, 0.292563f, -0.190473f, 0.291387f, 0.157660f, -0.293586f, -0.003363f, 0.250705f, 0.267956f, -0.262704f, -0.060311f, 0.177362f, 0.019559f, 0.010164f, -0.010036f, 0.051547f, -0.066428f, -0.164516f, -0.240484f, -0.319436f, -0.033725f, 0.050042f, -0.125025f, -0.122918f, -0.111987f, 0.160496f, -0.166288f, -0.140263f, -0.058590f, -0.002169f, 0.289762f, 0.101945f, -0.298948f, -0.007530f, -0.181135f, 0.047173f, 0.078716f, 0.119416f, -0.132210f, -0.216014f, -0.142724f, 0.216953f, 0.225938f, 0.263419f, 0.305800f, -0.116649f, -0.038834f, -0.072472f, 0.191403f, -0.294915f, 0.099584f, -0.188261f, 0.265664f, -0.062857f, 0.005141f, -0.104786f, -0.233297f, 0.130369f, -0.313111f, 0.203272f, -0.075153f, -0.255144f, -0.086403f, -0.046770f, -0.244458f, -0.167895f, 0.260574f, -0.258857f, 0.269961f, 0.112551f, -0.146310f, 0.140608f, -0.139431f, -0.038059f, -0.309126f, 0.103968f, -0.283513f, -0.223542f, -0.165916f, 0.267504f, -0.265193f, 0.060469f, -0.272301f, -0.165632f, -0.009284f, -0.126307f, 0.089579f, -0.289162f, -0.193845f, -0.269905f, -0.032078f, -0.137362f, 0.003373f, 0.166459f, -0.230031f, -0.326493f, 0.309102f, -0.133728f, 0.188633f, 0.299848f, 0.005603f, 0.264299f, -0.078620f, -0.097369f, -0.236030f, 0.200645f, -0.223772f, 0.003579f, 0.014688f, -0.268832f, 0.291087f, 0.253260f, 0.232774f, 0.179342f, -0.245211f, 0.169321f, -0.156887f, 0.079018f, -0.242779f, -0.298903f, 0.284529f, 0.164083f, 0.217240f, -0.018700f, -0.265509f, 0.222861f, -0.262828f, -0.314742f, 0.032909f, 0.057045f, -0.210622f, -0.063036f, 0.109355f, 0.089503f, 0.189654f, 0.136823f, 0.093005f, 0.052818f, 0.141089f, -0.240166f, 0.048088f, 0.333517f, 0.045413f, 0.044373f, 0.286447f, -0.035120f, 0.206989f, -0.045549f, -0.259187f, -0.146142f, 0.142300f, -0.176960f, 0.099942f, 0.162852f, -0.080598f, -0.059130f, 0.123221f, -0.309905f, -0.039800f, -0.080320f, 0.200165f, 0.152826f, 0.328464f, 0.004485f, 0.012825f, 0.106868f, -0.100867f, -0.005352f, -0.050126f, 0.111653f, 0.181544f, -0.119681f, 0.051939f, -0.304713f, -0.253010f, 0.259774f, -0.038595f, -0.184981f, -0.303340f, -0.344632f, -0.274999f, -0.159381f, 0.032670f, -0.197523f, 0.066787f, 0.013603f, 0.227255f, -0.091546f, -0.166787f, -0.185930f, 0.254318f, -0.204810f, -0.172227f, -0.049230f, -0.141910f, 0.014533f, 0.094088f, -0.013438f, -0.060378f, -0.141700f, -0.177912f, -0.145154f, 0.242701f, 0.183100f, -0.055855f, 0.193219f, 0.192634f, -0.070440f, -0.230233f, 0.197706f, 0.109783f, -0.243500f, -0.140984f, -0.237509f, -0.150122f, 0.081078f, 0.258282f, 0.299882f, -0.087281f, 0.061718f, 0.193312f, 0.016586f, 0.065103f, 0.244411f, -0.193216f, -0.126893f, 0.150260f, 0.204355f, 0.062424f, -0.234222f, 0.268728f, 0.308809f, -0.030815f, 0.235991f, -0.137403f, 0.237674f, 0.222769f, -0.129713f, 0.073688f, 0.243672f, 0.106266f, 0.053354f, 0.064265f, -0.215300f, -0.216481f, -0.019554f, -0.117506f, 0.234818f, 0.054211f, -0.125934f, 0.131943f, -0.349866f, 0.233181f, -0.049954f, -0.026901f, 0.158449f, -0.244872f, -0.212373f, -0.255361f, -0.153270f, 0.279017f, 0.063643f, -0.075134f, 0.207305f, 0.122589f, 0.240271f, -0.143699f, -0.062209f, 0.261955f, -0.203139f, 0.229350f, 0.285222f, -0.260978f, 0.249412f, 0.008510f, -0.256878f, 0.218058f, -0.293515f, 0.289964f, 0.026940f, 0.224810f, -0.267505f, -0.178000f, -0.272685f, 0.003520f, -0.073555f, 0.030771f, 0.166533f, 0.036452f, 0.122363f, -0.092780f, 0.130344f, -0.265172f, 0.041133f, -0.110744f, 0.110472f, -0.276033f, 0.020062f, -0.105075f, -0.135356f, 0.165578f, 0.124479f, 0.073364f, 0.278708f, 0.250413f, -0.142511f, -0.028463f, -0.250158f, -0.115851f, -0.027139f, -0.125506f, 0.129291f, 0.166959f, -0.318759f, 0.255400f, 0.214371f, -0.185738f, 0.269792f, -0.264746f, 0.261157f, -0.210315f, 0.044430f, 0.140215f, 0.187608f, -0.311067f, -0.089838f, 0.173925f, -0.008743f, -0.079194f, -0.289557f, -0.161592f, -0.056236f, 0.200417f, 0.163306f, 0.217995f, -0.025169f, -0.103731f, -0.146669f, -0.274555f, 0.256132f, 0.059886f, 0.000659f, -0.122106f, -0.251585f, -0.211720f, -0.191655f, 0.138151f, -0.153236f, -0.062468f, 0.178158f, 0.234718f, -0.006132f, 0.096425f, -0.013692f, 0.039196f, 0.074968f, 0.199297f, 0.267462f, -0.145149f, -0.141590f, 0.302199f, 0.191627f, -0.070743f, -0.037581f, -0.164917f, -0.243936f, -0.290655f, 0.033966f, -0.225926f, 0.066549f, -0.252085f, 0.033572f, 0.204823f, 0.244307f, 0.047354f, 0.000100f, 0.048766f, -0.063624f, 0.050262f, 0.325139f, 0.270258f, -0.120770f, -0.128572f, 0.180803f, 0.325469f, -0.309127f, 0.182836f, 0.117231f, -0.091256f, 0.361403f, 0.051537f, -0.109716f, 0.049329f, -0.052292f, 0.236368f, -0.346914f, -0.050739f, 0.222455f, 0.312536f, -0.135356f, 0.278189f, 0.250781f, -0.126191f, -0.063288f, -0.219832f, 0.238351f, 0.070477f, -0.197834f, -0.115472f, 0.010001f, -0.109672f, 0.237796f, -0.046967f, 0.028848f, 0.168481f, -0.355687f, -0.196232f, 0.156613f, -0.208255f, 0.177826f, -0.189376f, -0.264231f, 0.244091f, -0.135346f, -0.304706f, 0.249012f, 0.181432f, 0.196717f, 0.102248f, -0.072005f, 0.167814f, 0.027694f, 0.085991f, -0.061420f, 0.176275f, 0.001011f, 0.295260f, -0.191428f, 0.114457f, 0.160983f, 0.252812f, 0.210933f, 0.102060f, 0.039004f, 0.175428f, -0.018141f, 0.292947f, 0.039084f, -0.132998f, 0.194211f, -0.095255f, 0.039333f, 0.030671f, 0.118862f, 0.150219f, 0.250534f, -0.038494f, 0.221024f, 0.012692f, -0.037937f, -0.084212f, 0.026793f, -0.193987f, -0.112402f, 0.213819f, 0.041898f, -0.292375f, -0.238846f, -0.226672f, 0.238301f, -0.108208f, 0.072257f, -0.076732f, 0.201943f, 0.028922f, 0.208569f, -0.198824f, 0.307435f, -0.170439f, -0.341106f, 0.265443f, -0.165797f, 0.202713f, -0.264308f, -0.238189f, 0.099166f, 0.069294f, 0.043500f, -0.150937f, 0.311862f, -0.235771f, 0.074575f, 0.308060f, -0.270689f, -0.018262f, 0.150860f, -0.111858f, -0.100540f, -0.303863f, -0.152982f, -0.139147f, -0.076148f, -0.303817f, 0.179447f, -0.243870f, -0.200246f, 0.078769f, 0.072625f, 0.069791f, 0.303163f, -0.059811f, -0.272980f, 0.325947f, 0.308280f, 0.165645f, 0.141881f, 0.114975f, -0.209928f, 0.194559f, -0.160952f, -0.276533f, -0.187769f, 0.244426f, 0.098974f, -0.301898f, 0.236995f, 0.040348f, -0.179877f, 0.184999f, 0.060691f, 0.037115f, -0.044673f, -0.127058f, 0.262888f, 0.264921f, -0.337987f, 0.238898f, -0.094286f, 0.118074f, -0.221434f, -0.118897f, 0.296797f, -0.113940f, -0.155984f, 0.000364f, -0.049638f, 0.078085f, 0.079711f, 0.266795f, 0.051796f, -0.089089f, 0.141278f, 0.304873f, -0.092687f, -0.064700f, -0.120660f, 0.241747f, -0.089898f, 0.221015f, 0.119242f, -0.287457f, 0.291077f, -0.181876f, -0.230601f, 0.040378f, -0.330882f, 0.048085f, 0.051128f, 0.037699f, -0.033756f, 0.104790f, -0.267360f, -0.097396f, 0.235305f, -0.288931f, 0.218578f, 0.304084f, 0.031107f, 0.079856f, 0.044658f, -0.232018f, -0.190502f, 0.050714f, 0.081269f, 0.089404f, 0.043802f, 0.148588f, -0.235256f, 0.048120f, 0.147073f, -0.228240f, 0.099358f, -0.126006f, -0.003938f, 0.348343f, -0.255610f, -0.085323f, -0.230539f, -0.089177f, 0.386432f, 0.054094f, -0.116253f, 0.363873f, -0.303963f, -0.006876f, -0.232809f, -0.350417f, 0.100866f, -0.189943f, 0.205832f, -0.023272f, -0.066979f, -0.113863f, -0.042673f, -0.201042f, 0.116409f, -0.308341f, -0.089280f, -0.241666f, -0.312744f, -0.242364f, 0.158973f, 0.257742f, -0.065949f, -0.126061f, -0.327562f, -0.255481f, -0.206298f, -0.239496f, 0.142028f, 0.027664f, -0.125696f, -0.341172f, -0.293443f, -0.048414f, 0.249133f, 0.005617f, -0.234725f, 0.213174f, -0.034400f, 0.025212f, -0.344055f, -0.249998f, 0.232329f, 0.097193f, -0.115341f, 0.212910f, -0.237190f, 0.142132f, -0.284563f, -0.140023f, 0.039541f, 0.007050f, 0.207293f, -0.186456f, -0.199736f, 0.171156f, 0.304318f, 0.111126f, 0.181217f, 0.212373f, -0.070484f, 0.303578f, 0.224008f, 0.223106f, 0.049126f, 0.008590f, 0.211672f, -0.133762f, 0.203207f, 0.137481f, -0.300814f, 0.046156f, 0.252465f, -0.188210f, -0.282234f, -0.210789f, -0.263760f, -0.313106f, 0.029192f, 0.131010f, -0.247285f, 0.000576f, 0.190422f, -0.139659f, -0.082962f, -0.224788f, 0.217359f, 0.252352f, -0.290248f, -0.252578f, 0.104405f, 0.218935f, -0.227377f, -0.213854f, -0.175893f, -0.205086f, -0.014274f, 0.282686f, 0.140106f, -0.019019f, 0.045929f, -0.267859f, -0.106068f, 0.337379f, -0.289104f, -0.165546f, 0.111626f, 0.007181f, 0.255777f, -0.067019f, -0.238321f, -0.016056f, 0.082951f, 0.228023f, 0.002449f, -0.193053f, -0.183780f, 0.110280f, -0.193075f, 0.338873f, -0.058691f, -0.180857f, -0.092531f, 0.138752f, 0.263540f, 0.336814f, -0.050165f, -0.268890f, -0.268634f, 0.242976f, 0.209827f, 0.037316f, -0.005130f, -0.236772f, 0.203297f, -0.064349f, -0.074907f, -0.278445f, -0.024014f, 0.214022f, 0.087957f, 0.292456f, 0.151809f, 0.109707f, -0.005085f, 0.257341f, -0.188561f, 0.059660f, -0.078192f, 0.090563f, -0.153703f, 0.090769f, -0.032821f, 0.240948f, 0.039710f, 0.069746f, -0.265722f, 0.128681f, -0.150282f, -0.255281f, -0.016265f, -0.165931f, 0.324424f, -0.161218f, -0.202422f, -0.294791f, 0.288346f, 0.238725f, 0.170426f, -0.068241f, 0.156093f, 0.173442f, 0.055791f, -0.113738f, 0.234826f, 0.033900f, -0.021818f, 0.085999f, -0.003849f, 0.013436f, 0.023121f, 0.031231f, -0.199896f, -0.187055f, 0.259009f, -0.022297f, -0.068542f, 0.171230f, 0.261437f, 0.290387f, -0.112936f, 0.205974f, 0.325631f, 0.146377f, -0.272076f, -0.282763f, 0.046606f, -0.147531f, 0.032510f, 0.061339f, 0.155391f, -0.146864f, -0.169528f, -0.245902f, -0.115025f, -0.051359f, 0.291226f, -0.120275f, -0.002859f, 0.206227f, -0.255200f, 0.042934f, -0.311421f, 0.171361f, 0.232234f, 0.000425f, 0.110011f, 0.133556f, -0.159440f, 0.236167f, -0.091824f, 0.171952f, 0.129491f, 0.019290f, 0.302379f, -0.211166f, -0.080247f, 0.215289f, -0.092164f, -0.219254f, -0.158431f, 0.158742f, 0.185677f, -0.182979f, -0.239534f, 0.108428f, 0.194556f, 0.084356f, -0.311904f, -0.035417f, -0.209494f, -0.004859f, -0.313470f, 0.190922f, -0.156722f, 0.038804f, -0.159320f, -0.187465f, 0.174522f, 0.293939f, -0.141021f, -0.102331f, -0.200933f, -0.147907f, 0.115497f };
static const float weather_forecast_layer_10_biases[30] = { 0.021766f, -0.024099f, -0.002740f, 0.007393f, -0.043957f, 0.006019f, 0.044625f, -0.003818f, -0.025386f, 0.014404f, -0.019637f, -0.003978f, -0.056720f, -0.008061f, -0.021425f, -0.029958f, 0.010112f, -0.068609f, 0.000011f, 0.045184f, -0.027562f, -0.037500f, -0.036364f, 0.030650f, 0.000000f, -0.048380f, -0.004070f, 0.020324f, 0.051372f, -0.013936f };
